~o
<STREAMINFO> 1 39
<VECSIZE> 39<NULLD><MFCC_E_D_A>
~v varFloor1
<Variance> 39
 9.857469e-03 5.546750e-03 7.227151e-03 7.634672e-03 7.804320e-03 6.913838e-03 7.343364e-03 6.157733e-03 6.080312e-03 4.222516e-03 4.611216e-03 3.340509e-03 1.125261e-03 4.615124e-04 3.291483e-04 3.045427e-04 4.137188e-04 4.288039e-04 3.993323e-04 4.290919e-04 4.150005e-04 3.785724e-04 3.096795e-04 2.945840e-04 2.399993e-04 4.639273e-05 6.651254e-05 6.107638e-05 5.636400e-05 8.277006e-05 8.862553e-05 9.320126e-05 1.011802e-04 1.035967e-04 9.807252e-05 8.817509e-05 8.367682e-05 7.139950e-05 7.005768e-06
~h "uh"
<BEGINHMM>
<NUMSTATES> 5
<STATE> 2
<MEAN> 39
 -2.030201e+00 -9.665071e+00 -4.850016e+00 -1.500457e+01 -1.153727e+01 -7.872433e+00 -1.326484e+01 -3.792828e+00 -3.982449e+00 1.373869e+00 -1.164011e+00 -2.904042e+00 -1.041829e+00 1.021281e+00 -1.310185e+00 1.511304e-01 -7.848151e-01 -8.387808e-01 -5.316058e-01 -1.090856e+00 5.665955e-01 5.681162e-01 4.180900e-01 -5.416582e-03 -3.161625e-01 3.664384e-01 -8.502450e-01 3.352739e-01 -5.672251e-03 5.236394e-01 5.099936e-01 2.173264e-01 6.659085e-01 1.207541e-01 -3.713307e-03 -1.960127e-01 -6.033723e-02 1.789059e-01 -2.526794e-01
<VARIANCE> 39
 1.163658e+01 2.600163e+01 5.178633e+01 7.321135e+01 4.987086e+01 1.008964e+02 6.382223e+01 6.938992e+01 5.704283e+01 6.208150e+01 7.963033e+01 3.147031e+01 1.024020e+00 2.717298e+00 1.834185e+00 2.578617e+00 4.614402e+00 3.877394e+00 4.272369e+00 4.567668e+00 4.338061e+00 3.744087e+00 3.754827e+00 3.773557e+00 2.402456e+00 1.423054e-01 5.131721e-01 4.482954e-01 4.093170e-01 6.245078e-01 6.995413e-01 9.156046e-01 7.503360e-01 9.321945e-01 8.442732e-01 8.653187e-01 7.990278e-01 4.271652e-01 2.549312e-02
<GCONST> 1.226515e+02
<STATE> 3
<MEAN> 39
 -2.493008e+00 -1.054106e+01 -4.786512e+00 -1.568067e+01 -1.138510e+01 -8.878133e+00 -1.240299e+01 -1.551957e+00 -2.882305e+00 2.039263e+00 -1.828534e+00 -3.065711e+00 -8.493247e-01 -1.332896e-01 2.385190e-02 2.615749e-01 3.677526e-01 3.898646e-02 -2.341589e-01 1.373563e-01 1.264822e-01 1.031905e-02 -2.369398e-01 -2.268173e-01 7.791431e-02 -1.244640e-01 -2.765147e-01 4.883735e-01 4.482185e-02 4.650115e-01 3.187645e-01 1.592605e-01 2.504025e-01 -2.252735e-01 -2.099437e-01 -2.095086e-01 -9.711853e-02 5.833494e-02 -2.053607e-01
<VARIANCE> 39
 1.157169e+01 2.519056e+01 4.458375e+01 7.413934e+01 5.011262e+01 1.002063e+02 6.879843e+01 6.404859e+01 5.452263e+01 5.373853e+01 8.240313e+01 3.586399e+01 1.093018e+00 3.918743e-01 9.019890e-01 1.544266e+00 1.898300e+00 1.769163e+00 2.359646e+00 2.228713e+00 2.376361e+00 2.345817e+00 2.425642e+00 2.149941e+00 1.550746e+00 6.950536e-02 2.360973e-01 3.472621e-01 2.243571e-01 4.433084e-01 4.952910e-01 5.593957e-01 6.553656e-01 5.492893e-01 4.724049e-01 4.511997e-01 4.550969e-01 3.284724e-01 2.985048e-02
<GCONST> 1.077668e+02
<STATE> 4
<MEAN> 39
 -3.484642e+00 -8.578824e+00 -2.867287e+00 -1.111205e+01 -1.067224e+01 -9.994902e+00 -1.302486e+01 -2.912186e+00 -4.159908e+00 -2.450437e-01 -2.938213e+00 -2.378921e+00 -2.207490e+00 -1.355959e+00 2.271837e+00 1.705198e-01 2.525676e+00 1.632205e+00 6.324319e-01 1.126436e+00 -6.731064e-01 -2.316017e-01 -9.307619e-01 -6.418827e-01 -3.175236e-02 -1.075944e+00 -6.351551e-01 3.882763e-01 -1.770977e-01 2.296526e-01 4.234417e-01 4.919443e-01 5.228019e-01 -2.879682e-02 6.053823e-02 8.500538e-03 7.515272e-02 -6.262081e-02 -2.229135e-01
<VARIANCE> 39
 1.414221e+01 3.059413e+01 4.915421e+01 7.820808e+01 5.452502e+01 8.124820e+01 6.373906e+01 4.928222e+01 5.538775e+01 5.343611e+01 7.012426e+01 3.884648e+01 2.140853e+00 2.771446e+00 3.080449e+00 2.854023e+00 5.477758e+00 4.555723e+00 5.576109e+00 5.830897e+00 5.015099e+00 4.029101e+00 4.792168e+00 5.255110e+00 3.419893e+00 4.141315e-01 3.974988e-01 6.474802e-01 4.628629e-01 8.618535e-01 7.120451e-01 8.836619e-01 8.602209e-01 8.524762e-01 8.357126e-01 7.400317e-01 8.449144e-01 6.044542e-01 6.266481e-02
<GCONST> 1.286140e+02
<TRANSP> 5
 0.000000e+00 1.000000e+00 0.000000e+00 0.000000e+00 0.000000e+00
 0.000000e+00 2.817979e-01 7.182022e-01 0.000000e+00 0.000000e+00
 0.000000e+00 0.000000e+00 6.734376e-01 3.265624e-01 0.000000e+00
 0.000000e+00 0.000000e+00 0.000000e+00 5.021461e-01 4.978539e-01
 0.000000e+00 0.000000e+00 0.000000e+00 0.000000e+00 0.000000e+00
<ENDHMM>
~h "pd"
<BEGINHMM>
<NUMSTATES> 5
<STATE> 2
<MEAN> 39
 -1.892050e+01 -2.324305e+00 -4.687226e+00 -1.236393e+00 -1.364142e+00 -3.108607e-01 -1.467404e+00 -1.883939e-01 -9.123114e-01 5.447665e-01 -5.069117e-01 -4.867676e-01 -1.090044e+01 -5.377024e-01 -1.314512e+00 -7.361327e-01 -7.966639e-01 -3.720271e-03 3.071414e-01 3.809156e-01 4.339081e-01 5.377191e-01 4.528283e-01 3.232229e-01 3.509492e-01 2.007192e-01 5.874022e-01 -3.666698e-01 -1.861744e-02 -7.457142e-01 -4.884974e-01 -6.968079e-01 -3.475130e-01 -8.790523e-02 -2.870756e-01 -1.281086e-01 -1.577807e-01 -6.537874e-02 7.371305e-01
<VARIANCE> 39
 9.998935e+00 1.095506e+01 1.219473e+01 1.420403e+01 1.411623e+01 1.536188e+01 1.575724e+01 1.755829e+01 1.731833e+01 1.535924e+01 1.332051e+01 1.191985e+01 4.073561e+00 3.747205e+00 3.451794e+00 3.011184e+00 3.845568e+00 3.288964e+00 3.686831e+00 3.143793e+00 3.491493e+00 3.552626e+00 2.660436e+00 2.421912e+00 1.958340e+00 1.338336e+00 6.594021e-01 5.409554e-01 5.880831e-01 6.561851e-01 6.458050e-01 6.566284e-01 6.185053e-01 6.211303e-01 5.868697e-01 4.974193e-01 4.625883e-01 3.610830e-01 1.370513e-01
<GCONST> 1.097743e+02
<STATE> 3
<MEAN> 39
 -1.771922e+01 -8.212418e+00 -5.873729e+00 -6.438563e+00 -3.105436e+00 -2.617656e+00 -2.477379e+00 -3.292260e-01 -1.700177e+00 3.256311e-01 -9.514264e-01 -2.396417e-01 -6.556636e+00 3.642420e-02 -1.462252e+00 -6.779874e-01 -1.998759e+00 -6.911805e-01 -8.821833e-01 -1.671364e-01 2.631348e-01 1.081922e-01 1.926026e-01 2.153168e-02 2.645392e-01 1.460169e+00 3.919068e-01 5.330234e-01 3.259757e-01 3.389513e-02 -2.639808e-01 -3.850414e-01 -2.096651e-01 -1.069328e-01 -2.277493e-01 -1.775606e-01 -1.712011e-01 -1.453275e-01 1.456554e-01
<VARIANCE> 39
 3.258607e+01 4.455390e+01 4.066683e+01 4.171628e+01 3.928178e+01 3.400835e+01 3.197787e+01 3.097363e+01 2.740824e+01 2.207767e+01 1.873516e+01 1.581164e+01 6.010569e+00 4.858618e+00 3.608649e+00 4.053210e+00 4.311662e+00 3.851391e+00 4.019070e+00 3.711308e+00 3.674342e+00 3.833882e+00 2.957739e+00 2.663640e+00 2.152915e+00 7.740276e-01 7.985062e-01 8.382938e-01 7.242957e-01 8.481244e-01 8.227895e-01 7.786542e-01 7.494605e-01 7.383130e-01 7.202328e-01 5.716694e-01 5.467966e-01 4.202791e-01 1.369206e-01
<GCONST> 1.231036e+02
<STATE> 4
<MEAN> 39
 -1.168320e+01 -8.909177e+00 -8.107924e+00 -8.414758e+00 -3.109300e+00 -2.724456e+00 -1.651540e+00 -9.407648e-01 -1.674334e+00 -1.021897e+00 -2.749708e+00 -1.713488e+00 -4.770757e+00 3.198526e+00 3.011178e-01 -3.924979e-01 -1.354502e+00 -1.146576e+00 -6.581329e-01 -1.446408e+00 -5.898952e-01 -1.199556e+00 -8.481846e-01 -6.850266e-01 -5.710939e-01 9.507689e-01 3.502007e-01 1.423562e-01 2.451877e-02 -1.033276e-01 -3.837587e-01 -9.545891e-02 -4.497893e-01 4.599556e-02 -6.832804e-02 2.747240e-02 1.898137e-01 3.861748e-02 3.289079e-02
<VARIANCE> 39
 2.237512e+01 2.742498e+01 4.200616e+01 4.314323e+01 3.733153e+01 4.371882e+01 4.115799e+01 3.669781e+01 3.247055e+01 2.922839e+01 2.605324e+01 1.920450e+01 2.116284e+00 4.208044e+00 3.740133e+00 4.564236e+00 5.199792e+00 4.587859e+00 5.538447e+00 5.579420e+00 4.907856e+00 4.762557e+00 3.438003e+00 3.850636e+00 2.575017e+00 4.661774e-01 4.126602e-01 5.092974e-01 4.870790e-01 6.134127e-01 6.337017e-01 7.089772e-01 7.190645e-01 7.227922e-01 6.894101e-01 6.540084e-01 5.292149e-01 4.244452e-01 9.978860e-02
<GCONST> 1.221147e+02
<TRANSP> 5
 0.000000e+00 1.000000e+00 0.000000e+00 0.000000e+00 0.000000e+00
 0.000000e+00 5.000000e-01 5.000000e-01 0.000000e+00 0.000000e+00
 0.000000e+00 0.000000e+00 3.333333e-01 3.333333e-01 3.333333e-01
 0.000000e+00 0.000000e+00 0.000000e+00 5.000000e-01 5.000000e-01
 0.000000e+00 0.000000e+00 0.000000e+00 0.000000e+00 0.000000e+00
<ENDHMM>
~h "hh"
<BEGINHMM>
<NUMSTATES> 5
<STATE> 2
<MEAN> 39
 -1.312870e+01 -9.399192e+00 -4.855535e+00 -8.534614e+00 -4.823158e+00 -1.303243e+00 1.095427e+00 2.320851e-01 -2.473269e+00 -2.392883e+00 -3.520384e+00 -5.874194e-01 -5.579978e+00 7.407272e-02 -4.276448e-01 8.010327e-02 -3.239506e-01 3.614377e-02 2.133469e-01 3.484032e-01 -2.190694e-01 -1.407244e-01 -1.294266e-01 -2.309839e-01 -7.813840e-02 2.132159e-01 3.107306e-01 2.958340e-01 3.596455e-02 -1.441497e-02 -2.100106e-01 -2.096315e-01 -3.484204e-01 -1.867337e-01 -1.321280e-01 -2.231825e-03 1.881327e-03 -1.303390e-01 9.613571e-02
<VARIANCE> 39
 2.570283e+01 3.433313e+01 5.408742e+01 4.182399e+01 5.248001e+01 4.608190e+01 4.351048e+01 5.021740e+01 4.196433e+01 3.469236e+01 3.165909e+01 2.386633e+01 4.249607e+00 2.159925e+00 2.232207e+00 2.264099e+00 2.527283e+00 2.887505e+00 2.882027e+00 3.008221e+00 2.762013e+00 2.674005e+00 2.389359e+00 2.216077e+00 1.809939e+00 2.247350e-01 3.652101e-01 3.360291e-01 3.967936e-01 4.858495e-01 5.358655e-01 5.183882e-01 5.961242e-01 5.294582e-01 5.270092e-01 4.752136e-01 4.707851e-01 3.617418e-01 2.774472e-02
<GCONST> 1.134087e+02
<STATE> 3
<MEAN> 39
 -1.111658e+01 -6.874989e+00 -2.143163e+00 -7.602507e+00 -5.557551e+00 -1.634927e+00 1.117858e+00 -1.373350e+00 -4.374829e+00 -3.128916e+00 -4.855067e+00 -1.692315e+00 -4.511565e+00 2.061247e+00 6.818373e-01 2.304460e-01 -6.216237e-01 -1.295876e+00 -8.345931e-01 -1.305953e+00 -7.078542e-01 -7.944835e-01 -4.128009e-01 -3.080331e-01 -5.940490e-01 6.897904e-01 3.811554e-01 -2.904383e-01 -2.404827e-01 -4.552988e-01 -4.458954e-01 -3.530273e-01 -5.262261e-01 5.697140e-02 -7.771294e-03 4.660752e-02 1.661586e-01 -2.402634e-02 1.822985e-01
<VARIANCE> 39
 2.370477e+01 3.603247e+01 6.636908e+01 4.745422e+01 6.099296e+01 5.427464e+01 5.111937e+01 6.288845e+01 4.817939e+01 4.438970e+01 3.782127e+01 2.782554e+01 2.381030e+00 2.298469e+00 1.843907e+00 3.509145e+00 2.659595e+00 3.069077e+00 3.201918e+00 3.581782e+00 3.128042e+00 3.520880e+00 2.579036e+00 3.194718e+00 1.950385e+00 2.155435e-01 2.212361e-01 2.853073e-01 3.318022e-01 3.232113e-01 4.356569e-01 4.539482e-01 5.335968e-01 4.671990e-01 4.849519e-01 4.796415e-01 4.103143e-01 3.581722e-01 1.665185e-02
<GCONST> 1.135607e+02
<STATE> 4
<MEAN> 39
 -5.793829e+00 -6.039465e+00 -3.490745e+00 -1.132449e+01 -9.932931e+00 -5.115592e+00 -2.464617e+00 -3.480635e+00 -6.241982e+00 -4.168417e+00 -5.734828e+00 -2.945214e+00 -2.514325e+00 1.879225e+00 -7.965435e-01 -5.201952e-01 -1.372169e+00 -1.547482e+00 -1.036294e+00 -1.474332e+00 -7.535020e-02 -3.020529e-01 3.268573e-03 2.629616e-01 -3.175400e-01 8.093906e-01 -4.019753e-01 -5.497519e-01 -8.668759e-02 -3.752266e-02 1.579617e-01 1.471131e-01 4.412954e-02 3.154320e-01 2.975138e-01 1.761498e-01 2.306065e-01 1.182401e-01 -5.795905e-02
<VARIANCE> 39
 1.806699e+01 3.610131e+01 8.755533e+01 5.787846e+01 6.843794e+01 5.974888e+01 5.929446e+01 7.444825e+01 5.729482e+01 4.650457e+01 5.229534e+01 2.673247e+01 1.303344e+00 1.711402e+00 1.880814e+00 3.512200e+00 2.627310e+00 3.508595e+00 3.535603e+00 3.937696e+00 3.273100e+00 3.531199e+00 3.089423e+00 2.762761e+00 2.188005e+00 1.882051e-01 2.138763e-01 2.258227e-01 3.075623e-01 3.410905e-01 3.926673e-01 3.624218e-01 5.097945e-01 4.586661e-01 4.140955e-01 4.316083e-01 3.755031e-01 2.897057e-01 1.848150e-02
<GCONST> 1.131575e+02
<TRANSP> 5
 0.000000e+00 1.000000e+00 0.000000e+00 0.000000e+00 0.000000e+00
 0.000000e+00 7.424126e-01 2.575874e-01 0.000000e+00 0.000000e+00
 0.000000e+00 0.000000e+00 3.935478e-01 6.064522e-01 0.000000e+00
 0.000000e+00 0.000000e+00 0.000000e+00 3.896184e-01 6.103816e-01
 0.000000e+00 0.000000e+00 0.000000e+00 0.000000e+00 0.000000e+00
<ENDHMM>
~h "en"
<BEGINHMM>
<NUMSTATES> 5
<STATE> 2
<MEAN> 39
 -4.832203e+00 -3.345453e+00 -1.989080e+00 -7.586669e+00 -9.719547e+00 -9.275636e+00 -6.352782e+00 -3.468300e+00 -6.969407e+00 -2.998410e+00 -6.465508e+00 -3.881603e+00 -4.536745e+00 1.804825e+00 2.374679e-01 -5.776630e-01 6.040965e-01 -7.258475e-01 -3.870073e-01 6.284350e-01 -1.700090e+00 -1.450884e+00 8.906950e-01 -6.369912e-01 -5.814766e-01 6.031692e-02 -9.903246e-01 3.051827e-02 2.911192e-02 7.988463e-02 3.058240e-01 3.396246e-01 3.865958e-01 -6.647284e-02 1.819283e-01 2.067684e-01 2.124604e-01 2.248853e-01 -3.292581e-02
<VARIANCE> 39
 1.093994e+01 2.806490e+01 3.127982e+01 5.083617e+01 4.260678e+01 4.589150e+01 4.879269e+01 7.016096e+01 6.359486e+01 5.704579e+01 4.397492e+01 3.962349e+01 1.811799e+00 4.437358e+00 3.343941e+00 3.071352e+00 3.702322e+00 4.736796e+00 4.414643e+00 5.256987e+00 5.482342e+00 4.898521e+00 4.129414e+00 4.114708e+00 3.300171e+00 1.968893e-01 6.390597e-01 5.440817e-01 5.007743e-01 6.194762e-01 7.297515e-01 7.355475e-01 9.392456e-01 1.092101e+00 8.981717e-01 7.596429e-01 6.003325e-01 5.396219e-01 3.242024e-02
<GCONST> 1.245042e+02
<STATE> 3
<MEAN> 39
 -4.350944e+00 -1.581502e+00 -3.033624e+00 -4.546232e+00 -1.027698e+01 -8.284575e+00 -2.119969e+00 -1.000261e+01 -9.620973e+00 6.433219e-01 -6.984086e+00 -4.372160e+00 -4.814676e+00 -1.784667e-01 3.819209e-01 1.068429e-01 2.526274e-01 2.127459e-01 2.814326e-01 1.905411e-01 -3.044975e-01 -7.263879e-02 8.295118e-04 -6.071570e-02 9.574406e-02 -1.054218e-01 -3.598247e-01 -2.189239e-02 5.363658e-02 -1.131267e-01 2.968800e-01 8.305258e-02 -2.368927e-01 5.176831e-01 3.119616e-01 -3.299526e-01 1.295769e-01 1.211144e-01 -4.143045e-02
<VARIANCE> 39
 7.650828e+00 2.332176e+01 2.597065e+01 4.483254e+01 4.213374e+01 4.572722e+01 4.507194e+01 6.659875e+01 6.159732e+01 5.518346e+01 5.800350e+01 4.987938e+01 2.053966e+00 5.305711e-01 1.472914e+00 1.127827e+00 1.571932e+00 1.763395e+00 1.671497e+00 2.134741e+00 2.993035e+00 2.148666e+00 2.066586e+00 1.604887e+00 1.585010e+00 6.493172e-02 2.946739e-01 3.349203e-01 2.983063e-01 3.786173e-01 5.056615e-01 4.685608e-01 5.377921e-01 7.125904e-01 6.377904e-01 4.858733e-01 5.030775e-01 3.836238e-01 1.229983e-02
<GCONST> 1.051540e+02
<STATE> 4
<MEAN> 39
 -7.239712e+00 -6.559782e-01 -2.018598e+00 -3.914213e+00 -7.519366e+00 -6.997035e+00 -3.416749e+00 -6.501280e+00 -8.081779e+00 -1.872368e+00 -6.474865e+00 -3.522103e+00 -5.789957e+00 -1.626018e+00 -3.036360e-01 -2.831274e-01 -5.288934e-01 1.305961e+00 5.541717e-01 -4.281869e-01 1.592733e+00 1.099021e+00 -7.160746e-01 6.419243e-01 4.445265e-01 -1.776237e-01 -4.611821e-01 -2.860416e-01 -2.409755e-01 -3.061958e-01 1.021016e-01 8.151451e-02 1.863496e-02 3.767962e-01 3.367321e-01 8.476298e-02 2.210667e-01 9.959732e-02 6.158483e-02
<VARIANCE> 39
 2.016276e+01 3.172025e+01 2.770487e+01 4.726453e+01 4.490495e+01 4.106034e+01 4.997431e+01 6.251005e+01 4.968850e+01 4.399484e+01 4.368538e+01 3.808749e+01 4.497365e+00 3.615335e+00 3.850444e+00 2.958755e+00 4.019504e+00 4.115615e+00 3.944970e+00 4.627666e+00 5.374177e+00 4.518982e+00 3.729189e+00 3.710329e+00 3.012094e+00 2.669932e-01 6.188694e-01 5.825793e-01 4.354329e-01 5.782316e-01 7.167906e-01 6.065075e-01 7.504246e-01 8.612300e-01 7.240128e-01 5.992238e-01 5.421097e-01 4.517569e-01 3.574083e-02
<GCONST> 1.232776e+02
<TRANSP> 5
 0.000000e+00 1.000000e+00 0.000000e+00 0.000000e+00 0.000000e+00
 0.000000e+00 5.777864e-01 4.222136e-01 0.000000e+00 0.000000e+00
 0.000000e+00 0.000000e+00 7.441303e-01 2.558697e-01 0.000000e+00
 0.000000e+00 0.000000e+00 0.000000e+00 5.577568e-01 4.422432e-01
 0.000000e+00 0.000000e+00 0.000000e+00 0.000000e+00 0.000000e+00
<ENDHMM>
~h "oy"
<BEGINHMM>
<NUMSTATES> 5
<STATE> 2
<MEAN> 39
 1.841933e+00 -7.075530e+00 -1.105808e+01 -2.396868e+01 -1.502729e+01 3.925693e+00 -3.901043e+00 -3.633328e+00 -5.606941e+00 -1.392435e+00 1.257636e+00 -7.397704e-01 -6.671953e-01 1.493092e-02 -8.570200e-01 -2.675093e-01 1.098843e-01 5.766134e-01 3.259240e-01 -2.977831e-01 -2.924386e-01 6.614514e-02 7.325251e-01 4.995548e-01 -2.360861e-01 1.225135e-01 -2.401045e-01 -1.464183e-01 1.148668e-01 6.141474e-01 3.428825e-01 -4.850335e-01 -2.950656e-01 5.205378e-02 2.749112e-01 1.717139e-01 -1.552937e-01 -2.472879e-01 -7.103492e-02
<VARIANCE> 39
 8.392545e+00 3.218254e+01 3.155612e+01 5.773351e+01 7.365588e+01 5.494451e+01 5.565165e+01 6.327392e+01 5.658115e+01 5.618420e+01 6.249956e+01 3.278644e+01 7.850046e-01 3.299641e-01 1.284879e+00 9.393784e-01 3.257489e+00 2.421255e+00 2.477802e+00 2.982988e+00 1.942742e+00 2.348885e+00 2.624450e+00 2.419501e+00 2.005819e+00 3.266026e-02 1.443325e-01 1.552007e-01 2.176062e-01 2.914046e-01 4.183555e-01 4.472361e-01 4.156194e-01 4.961101e-01 5.151890e-01 4.407977e-01 5.127699e-01 3.568469e-01 1.111953e-02
<GCONST> 1.029975e+02
<STATE> 3
<MEAN> 39
 -1.600038e-01 -1.446971e+01 -1.035071e+01 -1.526482e+01 -8.816194e+00 -3.679810e+00 -1.162552e+01 -1.157120e+00 -4.949237e-01 4.412141e+00 -4.930805e-01 -6.411987e+00 -4.838287e-01 -7.105474e-01 -7.838018e-01 1.574425e+00 2.112118e+00 -3.411731e-01 -3.160154e+00 -8.581796e-01 2.051690e+00 1.171532e+00 -6.618254e-01 -1.438848e+00 -2.827353e-01 -9.085950e-02 -1.112504e-01 4.235934e-01 4.901954e-01 -2.360831e-01 -6.541290e-01 -6.455722e-02 6.464770e-01 1.794776e-01 -6.070223e-01 -7.097361e-01 5.198818e-02 6.236298e-01 -4.695281e-02
<VARIANCE> 39
 8.991010e+00 2.002674e+01 3.062724e+01 5.018239e+01 5.021795e+01 7.624166e+01 5.963378e+01 6.845250e+01 5.936435e+01 5.692099e+01 9.567125e+01 2.983522e+01 9.639586e-01 2.551969e-01 9.374650e-01 1.591574e+00 1.604986e+00 2.956166e+00 2.507786e+00 4.569071e+00 2.461734e+00 3.310087e+00 4.157674e+00 2.201813e+00 3.939622e+00 1.676825e-02 4.712425e-02 1.194269e-01 2.115444e-01 2.869550e-01 3.294654e-01 7.032355e-01 4.881698e-01 8.179286e-01 6.735649e-01 5.719914e-01 8.322533e-01 3.803343e-01 1.000000e-02
<GCONST> 1.043715e+02
<STATE> 4
<MEAN> 39
 -4.484591e+00 -1.245571e+01 3.923488e-01 -1.141405e+01 -1.557458e+01 -1.386063e+01 -7.612459e+00 2.895849e+00 -5.255408e+00 -1.741774e+00 -2.261802e+00 -1.660808e+00 -1.406433e+00 -9.901055e-01 1.490011e+00 1.297192e+00 4.915794e-01 -3.585950e-01 -1.304522e-01 1.029162e+00 -8.639904e-01 -1.202413e+00 -5.374537e-01 1.922264e-01 4.102581e-01 -3.582355e-01 -1.756277e-01 3.773362e-01 -5.783219e-01 -9.192544e-02 6.666613e-01 7.119214e-01 3.055437e-02 -4.817744e-01 1.685329e-01 3.296057e-01 4.047700e-02 -2.385023e-01 -6.481002e-02
<VARIANCE> 39
 1.312857e+01 2.478823e+01 4.691063e+01 5.341276e+01 3.767278e+01 4.747866e+01 7.625475e+01 6.066817e+01 7.802879e+01 4.821485e+01 6.092832e+01 3.055892e+01 1.486668e+00 1.496806e+00 2.068458e+00 3.671952e+00 2.360918e+00 5.635621e+00 3.361573e+00 4.109437e+00 4.094855e+00 4.508593e+00 3.307688e+00 2.807915e+00 2.424972e+00 9.579989e-02 3.392590e-01 2.895453e-01 3.777878e-01 4.989397e-01 4.911921e-01 5.409809e-01 7.137697e-01 9.523674e-01 8.503143e-01 5.423185e-01 4.990444e-01 4.031261e-01 1.642637e-02
<GCONST> 1.165185e+02
<TRANSP> 5
 0.000000e+00 1.000000e+00 0.000000e+00 0.000000e+00 0.000000e+00
 0.000000e+00 8.468485e-01 1.531515e-01 0.000000e+00 0.000000e+00
 0.000000e+00 0.000000e+00 7.637777e-01 2.362223e-01 0.000000e+00
 0.000000e+00 0.000000e+00 0.000000e+00 7.804162e-01 2.195838e-01
 0.000000e+00 0.000000e+00 0.000000e+00 0.000000e+00 0.000000e+00
<ENDHMM>
~h "dh"
<BEGINHMM>
<NUMSTATES> 5
<STATE> 2
<MEAN> 39
 -1.419096e+01 -1.245104e+00 -5.929512e+00 -3.915089e+00 -3.920554e+00 -4.367973e+00 -4.221216e+00 -3.292188e+00 -2.234885e+00 -1.273636e+00 -2.758583e+00 -2.307390e+00 -7.093804e+00 9.367111e-01 -2.799487e-01 -8.226269e-02 -6.606536e-01 -8.789831e-01 -9.745377e-01 -6.027461e-01 -1.064465e-02 2.742060e-01 -1.862812e-01 -1.224046e-01 3.078093e-02 8.402424e-01 5.569566e-01 -4.055507e-01 1.969164e-01 -4.410355e-01 -5.221390e-01 -3.654979e-01 -3.556079e-01 1.489422e-01 9.467185e-02 1.308898e-01 -2.119466e-02 4.000948e-02 2.568879e-01
<VARIANCE> 39
 4.049582e+01 2.801081e+01 2.495810e+01 2.830104e+01 2.388580e+01 2.894804e+01 3.605684e+01 3.382780e+01 2.655564e+01 2.266723e+01 2.312707e+01 2.254619e+01 6.712969e+00 4.702882e+00 2.821504e+00 3.001525e+00 3.533956e+00 3.568355e+00 3.956483e+00 3.921638e+00 3.575342e+00 3.286869e+00 2.572601e+00 2.450120e+00 2.375380e+00 1.036812e+00 6.144857e-01 6.840567e-01 7.019788e-01 8.007333e-01 6.450318e-01 7.133197e-01 7.993358e-01 7.165810e-01 6.619055e-01 5.457394e-01 5.592503e-01 4.942278e-01 1.122167e-01
<GCONST> 1.203766e+02
<STATE> 3
<MEAN> 39
 -9.300618e+00 -1.926803e+00 -5.812597e+00 -6.604027e+00 -7.842415e+00 -9.043930e+00 -7.422874e+00 -3.676964e+00 -9.121137e-01 -1.398621e+00 -3.398699e+00 -2.183141e+00 -3.660943e+00 2.539088e+00 -1.385312e+00 8.244962e-01 -1.731105e+00 -2.129448e+00 -1.912602e+00 -1.956495e+00 4.215721e-01 4.438599e-01 2.380921e-01 -2.888298e-01 -8.376861e-02 1.296662e+00 1.063104e-02 -3.640758e-01 3.454939e-01 -9.965797e-02 -2.718117e-02 2.841959e-01 1.491477e-02 1.625772e-01 -2.443787e-01 1.525101e-01 5.044828e-02 -1.473605e-02 -1.593117e-01
<VARIANCE> 39
 2.136500e+01 1.899508e+01 2.389894e+01 2.519122e+01 2.755069e+01 3.032156e+01 3.898267e+01 2.983294e+01 2.886760e+01 2.814007e+01 2.217786e+01 2.367360e+01 2.151802e+00 3.802481e+00 3.015903e+00 4.503654e+00 4.264915e+00 4.377211e+00 5.290391e+00 5.405228e+00 5.590858e+00 5.339664e+00 3.799834e+00 4.169644e+00 3.482772e+00 4.427020e-01 3.979562e-01 3.846399e-01 4.353343e-01 4.775455e-01 4.995298e-01 5.048730e-01 6.115550e-01 5.835876e-01 5.536307e-01 4.635152e-01 4.592597e-01 4.077599e-01 5.678584e-02
<GCONST> 1.166571e+02
<STATE> 4
<MEAN> 39
 -5.263886e+00 -6.023354e+00 -3.848199e+00 -1.044677e+01 -1.168050e+01 -1.180803e+01 -1.073885e+01 -2.584417e+00 -6.738958e-01 -3.705765e-01 -4.166755e+00 -2.266713e+00 -2.085656e+00 1.821868e+00 -1.829788e+00 1.048292e+00 -1.585928e+00 -1.666218e+00 -1.032071e+00 -1.261527e+00 7.038043e-01 -6.389792e-02 3.431865e-01 -1.563983e-01 -7.676638e-03 8.139468e-01 -6.339317e-01 2.068379e-01 -7.017693e-03 4.644701e-01 5.674864e-01 7.032180e-01 5.950441e-01 -7.485133e-03 -3.644671e-01 -8.723881e-02 1.512558e-01 4.108204e-03 -3.808774e-01
<VARIANCE> 39
 1.148347e+01 2.365096e+01 3.865044e+01 4.467113e+01 4.372245e+01 4.787401e+01 5.029173e+01 4.663396e+01 5.084513e+01 4.190307e+01 3.792031e+01 3.438554e+01 1.655582e+00 2.469126e+00 2.538822e+00 3.683393e+00 3.897196e+00 3.907230e+00 4.750870e+00 5.349444e+00 4.836140e+00 4.584445e+00 3.536314e+00 4.066894e+00 2.932650e+00 2.335433e-01 4.753734e-01 3.702853e-01 4.753614e-01 6.095772e-01 5.989296e-01 6.114110e-01 6.734064e-01 7.097917e-01 6.954713e-01 5.731081e-01 4.971110e-01 5.259283e-01 5.325224e-02
<GCONST> 1.200548e+02
<TRANSP> 5
 0.000000e+00 1.000000e+00 0.000000e+00 0.000000e+00 0.000000e+00
 0.000000e+00 6.232170e-01 3.767830e-01 0.000000e+00 0.000000e+00
 0.000000e+00 0.000000e+00 1.470812e-01 8.529188e-01 0.000000e+00
 0.000000e+00 0.000000e+00 0.000000e+00 1.856481e-01 8.143519e-01
 0.000000e+00 0.000000e+00 0.000000e+00 0.000000e+00 0.000000e+00
<ENDHMM>
~h "sil"
<BEGINHMM>
<NUMSTATES> 5
<STATE> 2
<MEAN> 39
 -1.592934e+01 -4.926888e+00 -6.942808e+00 -3.966156e+00 -3.081482e+00 -1.883191e+00 -1.143197e+00 6.542572e-01 -1.030977e+00 -1.035180e+00 -1.483763e+00 1.510328e-01 -1.004582e+01 -2.052776e-01 8.494348e-02 -1.540129e-01 2.345404e-01 2.268185e-01 3.475716e-01 1.947735e-01 4.708112e-02 6.437833e-02 1.314420e-01 8.443171e-02 4.079605e-02 -2.790768e-01 -1.678115e-02 8.502448e-02 8.218060e-02 -1.741036e-02 -5.327997e-02 -3.258827e-02 -5.886225e-03 1.744883e-02 -2.812785e-02 -9.849485e-04 1.683418e-02 -1.218580e-02 4.408116e-02
<VARIANCE> 39
 1.560592e+01 2.230227e+01 2.327167e+01 2.634656e+01 2.436180e+01 2.715852e+01 2.655051e+01 2.657528e+01 2.584789e+01 2.536650e+01 2.214675e+01 1.782923e+01 4.567818e+00 2.495269e+00 3.639798e+00 5.024642e+00 6.227787e+00 7.678180e+00 9.237629e+00 1.004534e+01 1.080817e+01 1.131930e+01 1.125018e+01 1.036363e+01 9.392843e+00 2.097580e-01 2.167060e+00 4.204398e+00 6.263759e+00 8.676667e+00 1.141476e+01 1.393426e+01 1.573655e+01 1.701464e+01 1.825018e+01 1.843815e+01 1.714905e+01 1.569741e+01 7.946196e-02
<GCONST> 1.591930e+02
<STATE> 3
<MEAN> 39
 -1.697092e+01 -4.592577e+00 -7.071846e+00 -3.977880e+00 -2.510936e+00 -2.061278e+00 -1.075958e+00 2.826796e-01 -1.335274e+00 -7.361032e-01 -1.396171e+00 1.606888e-02 -1.030976e+01 -9.024126e-02 1.323704e-01 2.493860e-02 8.629596e-02 3.450169e-02 7.729980e-02 1.339110e-02 -3.635495e-02 -1.057638e-02 5.568388e-02 2.777220e-02 -2.235882e-02 -6.784049e-02 4.079562e-02 4.365967e-04 2.938879e-02 -3.777808e-02 -3.250331e-02 -3.899840e-02 -2.435841e-02 -1.879503e-02 -1.888042e-02 -1.427204e-02 -1.456618e-02 -1.514213e-02 5.184135e-02
<VARIANCE> 39
 1.491583e+01 2.304711e+01 1.890969e+01 2.225437e+01 1.970382e+01 2.472967e+01 2.224887e+01 2.280362e+01 2.181712e+01 2.346081e+01 1.929359e+01 1.528289e+01 3.798464e+00 6.959244e-01 1.029381e+00 1.140594e+00 1.320816e+00 1.391825e+00 1.598569e+00 1.646054e+00 1.699059e+00 1.704155e+00 1.705659e+00 1.494987e+00 1.299754e+00 1.174259e-01 1.540010e-01 2.056236e-01 2.402450e-01 2.961388e-01 3.251153e-01 3.727375e-01 3.978545e-01 4.133951e-01 4.192098e-01 4.177011e-01 3.701907e-01 3.311006e-01 2.556703e-02
<GCONST> 9.321144e+01
<STATE> 4
<MEAN> 39
 -1.665638e+01 -3.126588e+00 -6.246307e+00 -3.091138e+00 -2.462331e+00 -9.877980e-01 -9.084083e-01 -1.558149e-01 -1.632900e+00 -4.783005e-01 -1.632270e+00 -4.915595e-01 -1.049442e+01 7.741688e-01 -1.121223e-01 2.192961e-01 -6.056105e-01 -4.812136e-01 -3.860384e-01 -3.223703e-01 -2.843964e-01 -3.146173e-01 -1.842902e-01 -2.119107e-01 -2.091778e-01 6.261556e-01 2.679672e-01 -1.400658e-01 -1.762990e-02 -2.561791e-01 -1.815686e-01 -1.634308e-01 -1.664635e-01 -5.202630e-02 -5.024448e-02 -2.720645e-02 -1.206908e-02 -2.024530e-02 2.040422e-01
<VARIANCE> 39
 1.504889e+01 1.747448e+01 2.217169e+01 2.292529e+01 2.285147e+01 2.429033e+01 2.292714e+01 2.513453e+01 2.354554e+01 2.305079e+01 2.100187e+01 1.666126e+01 3.697880e+00 3.880632e+00 4.054469e+00 4.703672e+00 6.962493e+00 7.427171e+00 8.396201e+00 9.252640e+00 9.904207e+00 1.031415e+01 9.830575e+00 9.115677e+00 8.245290e+00 9.108977e-01 1.650743e+00 3.144826e+00 4.720327e+00 7.298070e+00 9.234032e+00 1.142403e+01 1.316411e+01 1.429033e+01 1.533856e+01 1.510701e+01 1.403620e+01 1.281571e+01 1.199520e-01
<GCONST> 1.569582e+02
<TRANSP> 5
 0.000000e+00 1.000000e+00 0.000000e+00 0.000000e+00 0.000000e+00
 0.000000e+00 3.418343e-01 6.581656e-01 0.000000e+00 0.000000e+00
 0.000000e+00 0.000000e+00 9.260303e-01 7.396974e-02 0.000000e+00
 0.000000e+00 0.000000e+00 0.000000e+00 4.614447e-01 5.385553e-01
 0.000000e+00 0.000000e+00 0.000000e+00 0.000000e+00 0.000000e+00
<ENDHMM>
~h "ax"
<BEGINHMM>
<NUMSTATES> 5
<STATE> 2
<MEAN> 39
 -2.809472e+00 -9.074569e+00 -7.687520e+00 -1.409825e+01 -7.724154e+00 -5.637351e+00 -1.168278e+01 -2.042699e+00 -4.961678e-01 1.309221e+00 -4.143809e+00 -4.668794e+00 -2.229779e+00 1.109292e+00 -2.784290e-01 -6.900729e-02 -4.710387e-01 -1.771049e-01 2.346029e-01 -6.437889e-01 -1.942532e-01 -9.307930e-02 2.565413e-01 5.629064e-02 -3.118124e-01 1.534812e-01 -8.141922e-01 7.251319e-01 1.513759e-01 6.496049e-01 3.197748e-01 1.605874e-01 7.349084e-01 -2.407612e-01 -4.466992e-01 -2.455766e-01 2.044725e-01 2.464125e-01 -2.843746e-01
<VARIANCE> 39
 1.813202e+01 2.887169e+01 4.098297e+01 5.113163e+01 4.024333e+01 6.855866e+01 5.987777e+01 5.653743e+01 4.936219e+01 5.824304e+01 6.148505e+01 3.533528e+01 2.128698e+00 3.505547e+00 2.519416e+00 2.555175e+00 4.353009e+00 3.526282e+00 3.996829e+00 3.910158e+00 4.256388e+00 3.863339e+00 3.204344e+00 3.428854e+00 2.565135e+00 3.066206e-01 6.657011e-01 4.884994e-01 4.788503e-01 7.720897e-01 6.500779e-01 9.075262e-01 9.515043e-01 9.560546e-01 8.519438e-01 7.913027e-01 7.810740e-01 5.675593e-01 5.289890e-02
<GCONST> 1.247035e+02
<STATE> 3
<MEAN> 39
 -2.138746e+00 -7.676156e+00 -7.196435e+00 -1.356538e+01 -7.658663e+00 -5.140456e+00 -1.183193e+01 -3.833218e+00 -2.001177e+00 1.576836e+00 -2.478866e+00 -4.325570e+00 -2.457185e+00 -6.341326e-01 1.762589e+00 3.942444e-01 1.270228e+00 6.469299e-01 2.975854e-01 1.118203e+00 -8.686690e-01 -1.101614e+00 -5.964373e-01 2.451402e-01 3.314032e-01 -5.578133e-01 -9.674389e-01 6.096969e-01 1.712920e-01 6.328856e-01 3.382653e-01 1.390392e-01 7.440072e-01 -1.364042e-02 -2.548412e-01 -3.363041e-01 -3.433049e-02 2.228002e-01 -2.751777e-01
<VARIANCE> 39
 1.845301e+01 2.755179e+01 4.087515e+01 5.494908e+01 3.933078e+01 7.223440e+01 5.586767e+01 5.455507e+01 5.080037e+01 5.424331e+01 6.065084e+01 3.384731e+01 1.907762e+00 2.608666e+00 2.407259e+00 2.718277e+00 5.461741e+00 3.607414e+00 4.297009e+00 4.088566e+00 4.342354e+00 4.363443e+00 3.818870e+00 3.617051e+00 2.981310e+00 2.655802e-01 6.353132e-01 4.760645e-01 5.245126e-01 7.034564e-01 6.501775e-01 9.655493e-01 8.373334e-01 9.707543e-01 8.222756e-01 7.742493e-01 7.921126e-01 5.687513e-01 5.174686e-02
<GCONST> 1.247359e+02
<STATE> 4
<MEAN> 39
 -4.539025e+00 -3.613867e+00 -7.030828e+00 -1.035192e+01 -5.728420e+00 -4.668206e+00 -8.268273e+00 -5.095500e+00 -3.446465e+00 -2.103526e-01 -2.458360e+00 -3.422710e+00 -3.790149e+00 -1.757806e+00 1.867844e+00 6.709586e-01 1.674213e+00 8.893245e-01 4.814401e-01 1.595423e+00 -4.899265e-01 -1.081394e+00 -7.942030e-01 1.807480e-02 4.012397e-01 -7.367032e-01 -5.122431e-01 -1.540766e-01 7.268437e-03 -1.279158e-02 1.196030e-02 5.687382e-02 1.584273e-01 2.707641e-01 1.000441e-01 2.765863e-03 -4.808001e-02 6.973120e-02 -2.711225e-02
<VARIANCE> 39
 2.862740e+01 2.918775e+01 3.687833e+01 5.939447e+01 4.186695e+01 6.182310e+01 4.965126e+01 4.953114e+01 4.897219e+01 4.744632e+01 4.619101e+01 3.164937e+01 3.596028e+00 5.086621e+00 3.368270e+00 3.017654e+00 6.262345e+00 4.045671e+00 5.073648e+00 4.828016e+00 5.450083e+00 5.067489e+00 4.310451e+00 3.999914e+00 3.032542e+00 5.422115e-01 5.581888e-01 4.150693e-01 4.186771e-01 5.724482e-01 5.469832e-01 7.235361e-01 6.716618e-01 7.052497e-01 6.558394e-01 6.130915e-01 5.782352e-01 4.739548e-01 4.976477e-02
<GCONST> 1.253501e+02
<TRANSP> 5
 0.000000e+00 1.000000e+00 0.000000e+00 0.000000e+00 0.000000e+00
 0.000000e+00 4.288085e-01 5.711915e-01 0.000000e+00 0.000000e+00
 0.000000e+00 0.000000e+00 2.081185e-01 7.918815e-01 0.000000e+00
 0.000000e+00 0.000000e+00 0.000000e+00 2.055883e-01 7.944117e-01
 0.000000e+00 0.000000e+00 0.000000e+00 0.000000e+00 0.000000e+00
<ENDHMM>
~h "sp"
<BEGINHMM>
<NUMSTATES> 3
<STATE> 2
<MEAN> 39
 -1.697092e+01 -4.592577e+00 -7.071846e+00 -3.977880e+00 -2.510936e+00 -2.061278e+00 -1.075958e+00 2.826796e-01 -1.335274e+00 -7.361032e-01 -1.396171e+00 1.606888e-02 -1.030976e+01 -9.024126e-02 1.323704e-01 2.493860e-02 8.629596e-02 3.450169e-02 7.729980e-02 1.339110e-02 -3.635495e-02 -1.057638e-02 5.568388e-02 2.777220e-02 -2.235882e-02 -6.784049e-02 4.079562e-02 4.365967e-04 2.938879e-02 -3.777808e-02 -3.250331e-02 -3.899840e-02 -2.435841e-02 -1.879503e-02 -1.888042e-02 -1.427204e-02 -1.456618e-02 -1.514213e-02 5.184135e-02
<VARIANCE> 39
 1.491583e+01 2.304711e+01 1.890969e+01 2.225437e+01 1.970382e+01 2.472967e+01 2.224887e+01 2.280362e+01 2.181712e+01 2.346081e+01 1.929359e+01 1.528289e+01 3.798464e+00 6.959244e-01 1.029381e+00 1.140594e+00 1.320816e+00 1.391825e+00 1.598569e+00 1.646054e+00 1.699059e+00 1.704155e+00 1.705659e+00 1.494987e+00 1.299754e+00 1.174259e-01 1.540010e-01 2.056236e-01 2.402450e-01 2.961388e-01 3.251153e-01 3.727375e-01 3.978545e-01 4.133951e-01 4.192098e-01 4.177011e-01 3.701907e-01 3.311006e-01 2.556703e-02
<GCONST> 9.321144e+01
<TRANSP> 3
 0.000000e+00 5.000000e-01 5.000000e-01
 0.000000e+00 5.000000e-01 5.000000e-01
 0.000000e+00 0.000000e+00 0.000000e+00
<ENDHMM>
~h "ey"
<BEGINHMM>
<NUMSTATES> 5
<STATE> 2
<MEAN> 39
 -4.386545e+00 -1.384022e+01 -1.101097e+00 -1.273158e+01 -1.612339e+01 -1.099169e+01 -7.312602e+00 4.676355e+00 -1.294250e+00 -1.954540e+00 -2.925792e+00 -2.360661e+00 -8.693594e-01 -1.447932e-01 -6.927080e-01 1.369717e+00 -6.659206e-01 -1.612685e+00 -4.176982e-01 6.571587e-01 8.638659e-01 -7.021801e-01 -2.526947e-01 6.240697e-01 4.909061e-01 2.441699e-01 -3.627638e-01 5.713085e-01 1.984739e-02 1.924060e-01 3.283212e-01 3.441595e-01 1.546131e-01 -6.064865e-01 -3.372384e-01 1.774700e-01 2.458114e-01 -2.917267e-02 -1.629218e-01
<VARIANCE> 39
 1.204701e+01 2.410221e+01 4.272512e+01 4.970695e+01 4.226387e+01 4.547080e+01 7.076267e+01 5.097555e+01 6.621555e+01 4.360265e+01 5.091909e+01 3.183799e+01 1.228944e+00 1.225302e+00 2.047838e+00 1.927456e+00 2.740474e+00 2.284057e+00 2.891711e+00 3.521383e+00 3.874600e+00 3.026365e+00 3.061551e+00 2.484064e+00 2.019978e+00 1.610959e-01 3.451302e-01 2.409839e-01 2.721306e-01 4.268450e-01 4.236626e-01 4.710108e-01 6.324334e-01 5.634049e-01 6.395090e-01 4.636464e-01 4.887354e-01 4.029654e-01 2.110950e-02
<GCONST> 1.114431e+02
<STATE> 3
<MEAN> 39
 -6.378433e+00 -1.148695e+01 4.027003e+00 -1.442919e+01 -2.000551e+01 -1.011841e+01 -4.895349e+00 1.558858e+00 -6.100410e+00 -7.465432e-01 -6.507954e-01 -1.864303e+00 -1.062403e+00 -1.684975e-01 5.000008e-01 7.479674e-01 2.785497e-02 -3.417191e-01 1.253805e-01 -1.109983e-01 -6.422179e-01 -6.703809e-01 1.513661e-01 2.682469e-01 -2.535783e-02 -9.767661e-02 4.785765e-02 1.083150e-01 -1.549979e-01 1.889648e-01 2.533966e-01 -8.198484e-03 -1.257617e-01 -6.940106e-02 4.176158e-02 -6.679519e-02 -1.273193e-01 -4.354602e-02 -5.175276e-02
<VARIANCE> 39
 1.146011e+01 2.693671e+01 3.917353e+01 6.870588e+01 3.522256e+01 5.120699e+01 6.158236e+01 6.554553e+01 5.339174e+01 4.573959e+01 6.018265e+01 2.682550e+01 1.177878e+00 2.530713e-01 6.184645e-01 9.942934e-01 8.879133e-01 9.595493e-01 1.118874e+00 1.382455e+00 1.486585e+00 1.670524e+00 1.295902e+00 1.153674e+00 9.305587e-01 2.189738e-02 5.071130e-02 1.153645e-01 1.521778e-01 1.724021e-01 2.081246e-01 2.112590e-01 2.519768e-01 2.649998e-01 2.388721e-01 2.231794e-01 2.078566e-01 1.708764e-01 1.000000e-02
<GCONST> 8.680614e+01
<STATE> 4
<MEAN> 39
 -6.707418e+00 -7.924452e+00 6.637740e+00 -1.108278e+01 -1.892614e+01 -1.056134e+01 -7.088049e+00 -1.448311e+00 -9.259017e+00 -1.495437e+00 -3.430829e-01 -1.858043e+00 -2.338649e+00 -5.491812e-01 1.448326e+00 -9.341295e-01 1.683728e+00 2.088150e+00 3.468226e-01 2.185691e-01 -6.288459e-01 1.015237e-01 -5.215570e-01 -5.398289e-01 -1.807364e-01 -6.255149e-01 -4.057463e-01 1.528832e-01 -6.082141e-01 1.581039e-01 7.042717e-01 3.207051e-01 2.608754e-01 4.650858e-02 4.330065e-01 5.218244e-02 -1.205472e-01 -1.638990e-02 -1.214761e-01
<VARIANCE> 39
 1.435677e+01 3.620772e+01 4.154713e+01 7.368201e+01 3.914109e+01 5.095744e+01 5.721074e+01 7.158720e+01 5.121185e+01 5.237827e+01 6.111016e+01 3.016271e+01 2.697743e+00 2.829229e+00 2.780298e+00 3.574182e+00 3.681937e+00 4.520779e+00 3.980299e+00 4.548754e+00 4.149375e+00 4.301161e+00 3.482328e+00 3.333320e+00 2.484705e+00 2.648241e-01 4.429627e-01 4.783122e-01 4.546660e-01 6.555516e-01 6.223528e-01 6.537994e-01 6.466511e-01 7.822043e-01 7.066536e-01 6.080204e-01 5.648678e-01 4.325263e-01 4.490574e-02
<GCONST> 1.225387e+02
<TRANSP> 5
 0.000000e+00 1.000000e+00 0.000000e+00 0.000000e+00 0.000000e+00
 0.000000e+00 6.233611e-01 3.766389e-01 0.000000e+00 0.000000e+00
 0.000000e+00 0.000000e+00 8.434976e-01 1.565024e-01 0.000000e+00
 0.000000e+00 0.000000e+00 0.000000e+00 6.954304e-01 3.045696e-01
 0.000000e+00 0.000000e+00 0.000000e+00 0.000000e+00 0.000000e+00
<ENDHMM>
~h "f"
<BEGINHMM>
<NUMSTATES> 5
<STATE> 2
<MEAN> 39
 -1.759785e+01 -5.058763e+00 -6.123262e+00 -4.720434e+00 -3.049227e+00 -3.068080e+00 -2.078848e+00 -6.524668e-01 -1.867511e+00 -1.375685e+00 -2.581633e+00 -1.107184e+00 -5.993975e+00 -3.723403e+00 -5.620251e-01 -4.464792e-01 5.667741e-01 2.960626e-01 3.658488e-01 5.530121e-01 4.984039e-01 6.239138e-01 3.639570e-01 4.173750e-01 5.449690e-01 -6.153987e-01 5.952326e-01 -4.280207e-01 -2.101470e-01 -5.498657e-01 -4.660869e-01 -2.614566e-01 -3.880635e-01 -7.467610e-02 -1.115182e-01 6.198873e-02 1.548593e-02 -6.867957e-02 2.331850e-01
<VARIANCE> 39
 3.305215e+01 1.595937e+01 1.492560e+01 1.470877e+01 1.495506e+01 1.852248e+01 1.733333e+01 1.732372e+01 1.797531e+01 1.710042e+01 1.429117e+01 1.275218e+01 2.938798e+00 4.996844e+00 2.657474e+00 3.705108e+00 3.999568e+00 3.194940e+00 3.874380e+00 3.782891e+00 3.318656e+00 3.335618e+00 2.994148e+00 2.902864e+00 2.242244e+00 3.636597e-01 7.127098e-01 5.350640e-01 5.266389e-01 5.973202e-01 5.354620e-01 5.301654e-01 6.120284e-01 5.604264e-01 5.451439e-01 4.992965e-01 4.556990e-01 3.939967e-01 3.864582e-02
<GCONST> 1.094464e+02
<STATE> 3
<MEAN> 39
 -2.284390e+01 -8.223684e+00 -9.044921e+00 -6.232842e+00 -4.809192e+00 -3.948638e+00 -3.011157e+00 -4.868499e-01 -1.170527e+00 -3.230036e-01 -1.722878e+00 -2.855454e-01 -6.054828e+00 2.197833e-01 -1.415741e-01 -1.133631e-01 -1.275523e-01 -5.790954e-02 -6.057488e-02 -8.073499e-02 -6.310405e-02 2.583342e-02 5.719522e-02 2.015206e-02 -1.548168e-02 5.492193e-02 8.279908e-01 1.606133e-01 1.536487e-01 -9.105752e-02 -1.725768e-02 -5.016857e-02 -1.066037e-01 -8.233915e-02 -9.566649e-02 -7.813213e-02 -5.926898e-02 -9.918127e-02 1.101159e-01
<VARIANCE> 39
 9.769442e+00 1.195264e+01 1.003132e+01 1.134658e+01 1.181706e+01 1.284460e+01 1.344778e+01 1.281641e+01 1.268035e+01 1.248050e+01 1.152691e+01 1.021229e+01 2.027142e+00 2.179430e+00 9.605334e-01 1.115566e+00 1.171506e+00 1.268704e+00 1.336038e+00 1.404443e+00 1.445232e+00 1.416770e+00 1.356570e+00 1.282631e+00 1.131582e+00 1.175145e-01 4.664475e-01 2.303639e-01 2.785289e-01 3.283449e-01 3.294951e-01 3.688638e-01 3.922634e-01 3.639173e-01 3.552549e-01 3.241272e-01 3.213677e-01 2.707222e-01 3.221093e-02
<GCONST> 8.629430e+01
<STATE> 4
<MEAN> 39
 -1.416866e+01 -6.694981e+00 -7.565853e+00 -7.357311e+00 -5.049794e+00 -4.329532e+00 -3.382519e+00 -1.433111e+00 -1.702719e+00 -7.866829e-01 -2.158893e+00 -1.232765e+00 -4.961192e+00 5.014731e+00 5.992582e-02 1.128597e-01 -1.568367e+00 -1.207251e+00 -5.986066e-01 -1.353231e+00 -4.978475e-01 -6.112495e-01 -4.105482e-01 -9.313807e-02 -4.941875e-01 9.607047e-01 2.839886e-01 -3.204309e-01 -1.382800e-01 -3.968579e-01 -3.597704e-01 -6.900717e-02 -3.702270e-01 7.338865e-02 -8.653809e-02 -3.135617e-02 8.235979e-02 -1.480431e-02 1.578805e-01
<VARIANCE> 39
 6.064658e+01 1.824159e+01 2.420279e+01 2.616740e+01 2.253826e+01 2.585142e+01 2.354372e+01 2.198681e+01 2.067149e+01 1.738999e+01 1.641179e+01 1.390277e+01 3.894108e+00 4.344790e+00 3.590432e+00 5.062328e+00 5.304452e+00 4.570936e+00 5.770029e+00 5.432534e+00 4.205407e+00 4.263587e+00 3.352684e+00 3.554658e+00 2.610907e+00 4.308165e-01 1.167963e+00 4.490556e-01 4.631909e-01 6.106169e-01 6.000620e-01 6.462178e-01 7.013301e-01 6.214094e-01 6.079140e-01 5.276370e-01 4.546129e-01 3.781545e-01 6.332000e-02
<GCONST> 1.175691e+02
<TRANSP> 5
 0.000000e+00 1.000000e+00 0.000000e+00 0.000000e+00 0.000000e+00
 0.000000e+00 5.316136e-01 4.683864e-01 0.000000e+00 0.000000e+00
 0.000000e+00 0.000000e+00 8.296278e-01 1.703722e-01 0.000000e+00
 0.000000e+00 0.000000e+00 0.000000e+00 5.852787e-01 4.147213e-01
 0.000000e+00 0.000000e+00 0.000000e+00 0.000000e+00 0.000000e+00
<ENDHMM>
~h "ao"
<BEGINHMM>
<NUMSTATES> 5
<STATE> 2
<MEAN> 39
 2.251047e-01 -8.882358e+00 -1.268901e+01 -2.013483e+01 -1.036714e+01 9.588653e-01 -5.790014e+00 -2.137604e+00 -4.305434e+00 -7.370718e-01 -3.360290e-01 -3.391965e+00 -1.096665e+00 1.022831e+00 -6.421044e-01 -9.643496e-01 -1.654035e+00 -1.321535e-01 1.359339e+00 4.740186e-01 -2.384107e-04 -2.061177e-01 -2.108304e-01 4.600282e-01 8.587400e-02 4.600236e-01 -6.101429e-01 1.012828e-01 1.876384e-01 5.746738e-01 3.692364e-01 -1.644293e-01 1.279824e-01 1.083018e-02 4.298045e-02 -9.502867e-02 -4.094764e-02 1.614068e-01 -1.591918e-01
<VARIANCE> 39
 1.282484e+01 4.459204e+01 3.643823e+01 5.897594e+01 7.152586e+01 7.171542e+01 7.741298e+01 6.131623e+01 6.807346e+01 6.595596e+01 6.584135e+01 4.179872e+01 1.767122e+00 2.166229e+00 2.245288e+00 2.173704e+00 3.897468e+00 4.415860e+00 4.012799e+00 4.145360e+00 4.036357e+00 3.913381e+00 3.657274e+00 3.151663e+00 2.894179e+00 2.320334e-01 4.670141e-01 3.942608e-01 3.471892e-01 5.932045e-01 6.769339e-01 6.558307e-01 7.983379e-01 7.027162e-01 7.782882e-01 6.684837e-01 6.377956e-01 4.803505e-01 3.186934e-02
<GCONST> 1.224826e+02
<STATE> 3
<MEAN> 39
 7.299427e-01 -9.985993e+00 -1.460991e+01 -2.306850e+01 -8.326141e+00 4.742006e+00 -3.305597e+00 -2.961360e+00 -3.349945e+00 -2.744129e+00 -1.575628e-02 -2.544555e+00 -3.246509e-01 2.618873e-02 -1.459794e-01 -2.316590e-01 2.499927e-01 3.466596e-01 -1.345106e-01 -1.697771e-01 3.116462e-02 8.358453e-02 -1.170103e-02 3.784521e-02 1.936660e-02 1.808629e-03 -3.381155e-02 4.710063e-02 6.801276e-02 2.222445e-01 1.530935e-02 -2.384990e-01 -1.612103e-01 2.505452e-02 2.560094e-02 7.935183e-02 -4.958520e-02 -3.810698e-02 -4.411121e-02
<VARIANCE> 39
 1.087736e+01 4.267975e+01 3.551682e+01 6.632526e+01 8.897339e+01 7.183325e+01 7.389085e+01 5.710970e+01 6.099314e+01 5.949631e+01 5.612991e+01 4.568993e+01 1.051114e+00 1.851689e-01 7.976323e-01 7.892061e-01 1.375117e+00 1.418480e+00 1.569854e+00 1.733306e+00 1.358071e+00 1.421046e+00 1.427033e+00 1.346929e+00 1.254188e+00 1.974948e-02 3.496782e-02 1.094947e-01 1.193011e-01 1.714448e-01 2.225801e-01 2.186677e-01 2.457903e-01 2.292117e-01 2.393470e-01 2.351134e-01 2.248505e-01 2.115021e-01 1.000000e-02
<GCONST> 9.003870e+01
<STATE> 4
<MEAN> 39
 8.144379e-02 -1.056159e+01 -1.449498e+01 -1.742682e+01 -6.605819e+00 -1.848662e-01 -6.157303e+00 -1.843256e+00 -3.461576e+00 -7.340382e-01 -7.616338e-01 -3.768347e+00 -1.139167e+00 -5.922960e-01 6.457894e-01 6.054738e-01 2.012689e+00 4.337031e-01 -1.691665e+00 -6.947087e-01 2.383232e-01 1.532107e-01 2.406600e-01 -4.152880e-01 1.453999e-01 -4.442858e-01 -3.595566e-01 2.757670e-01 3.255826e-01 2.876866e-01 1.202905e-02 -1.120991e-01 6.100337e-02 -5.516433e-02 1.413110e-02 -1.100751e-01 -1.235648e-01 1.039813e-01 -1.212023e-01
<VARIANCE> 39
 1.468730e+01 3.746792e+01 3.811610e+01 6.210887e+01 5.986114e+01 7.340744e+01 8.168789e+01 6.314745e+01 7.078859e+01 6.950194e+01 7.745866e+01 5.249984e+01 2.029653e+00 1.841284e+00 3.527459e+00 3.148256e+00 3.259136e+00 4.723660e+00 3.386673e+00 5.061622e+00 4.075581e+00 4.227484e+00 3.699700e+00 3.497142e+00 3.329383e+00 2.226587e-01 3.481934e-01 3.225175e-01 3.035452e-01 5.053177e-01 5.346063e-01 5.943911e-01 7.188562e-01 6.887625e-01 6.940285e-01 6.724408e-01 6.783609e-01 5.597414e-01 2.585321e-02
<GCONST> 1.226175e+02
<TRANSP> 5
 0.000000e+00 1.000000e+00 0.000000e+00 0.000000e+00 0.000000e+00
 0.000000e+00 6.765256e-01 3.234744e-01 0.000000e+00 0.000000e+00
 0.000000e+00 0.000000e+00 8.631761e-01 1.368239e-01 0.000000e+00
 0.000000e+00 0.000000e+00 0.000000e+00 6.391233e-01 3.608767e-01
 0.000000e+00 0.000000e+00 0.000000e+00 0.000000e+00 0.000000e+00
<ENDHMM>
~h "r"
<BEGINHMM>
<NUMSTATES> 5
<STATE> 2
<MEAN> 39
 3.307885e+00 -9.426666e+00 -1.623261e+01 -7.580681e+00 -3.413558e+00 -8.710031e+00 -1.585460e+01 -1.670485e+00 -1.902601e+00 -2.846957e+00 -1.082909e+00 1.935497e-01 -1.930044e+00 1.131403e+00 -8.364629e-01 -5.484563e-01 1.473657e-01 -1.030062e-01 -8.218606e-01 -1.535839e+00 7.683578e-01 6.698807e-01 -1.004494e-01 -4.919759e-02 5.384237e-02 3.577048e-01 -7.167013e-01 -2.102269e-01 6.579108e-01 5.792000e-02 -4.326015e-01 4.001787e-02 6.477843e-01 2.761619e-01 -7.118780e-02 1.680365e-02 2.557620e-02 -1.144245e-01 -7.596367e-02
<VARIANCE> 39
 1.258299e+01 3.418637e+01 5.630765e+01 4.059099e+01 4.965901e+01 6.682065e+01 7.971671e+01 8.216067e+01 6.907298e+01 3.843977e+01 3.722926e+01 3.265870e+01 2.302869e+00 3.043909e+00 2.434827e+00 3.246005e+00 3.136929e+00 4.141356e+00 4.339998e+00 5.443490e+00 5.210525e+00 4.183674e+00 3.410430e+00 2.806871e+00 2.278859e+00 2.671134e-01 5.806719e-01 3.263848e-01 4.573051e-01 4.087939e-01 5.363148e-01 6.989414e-01 1.010011e+00 7.724742e-01 6.551826e-01 5.422187e-01 4.521458e-01 4.198282e-01 2.565667e-02
<GCONST> 1.210139e+02
<STATE> 3
<MEAN> 39
 2.856418e+00 -1.441163e+01 -1.403921e+01 -5.812833e+00 -6.399738e+00 -1.271514e+01 -1.709857e+01 5.139959e+00 2.271978e-01 -3.493441e+00 -1.350222e+00 -4.101153e-01 -1.028001e+00 -5.082949e-01 -7.505645e-01 1.621106e+00 1.776565e-01 -1.506710e+00 -6.123925e-01 9.509394e-01 1.043623e+00 -3.810209e-01 -4.234842e-01 6.692782e-02 -1.688995e-01 5.943233e-02 -5.396949e-01 3.432972e-01 5.762066e-01 -2.542236e-01 -1.734214e-01 4.926319e-01 8.134189e-01 -4.903797e-01 -4.702938e-01 1.074165e-01 8.075276e-02 -1.202726e-01 -1.263765e-01
<VARIANCE> 39
 8.794625e+00 2.230948e+01 5.999266e+01 4.582182e+01 5.898839e+01 7.800253e+01 1.029160e+02 7.732094e+01 8.295757e+01 4.498067e+01 4.215553e+01 3.323536e+01 1.247136e+00 7.381160e-01 1.854519e+00 2.809521e+00 2.570356e+00 3.364102e+00 3.627534e+00 4.416227e+00 4.492038e+00 3.407072e+00 2.992473e+00 2.826477e+00 2.232834e+00 1.243629e-01 3.493357e-01 1.949393e-01 3.064299e-01 3.798393e-01 5.316914e-01 5.592186e-01 8.148417e-01 6.253156e-01 6.139632e-01 4.815374e-01 4.134555e-01 3.734979e-01 1.627260e-02
<GCONST> 1.139121e+02
<STATE> 4
<MEAN> 39
 4.931744e-01 -1.429117e+01 -8.974236e+00 -6.337117e+00 -1.010395e+01 -1.323437e+01 -1.195393e+01 4.838129e+00 -3.160360e+00 -3.915706e+00 -1.510433e+00 -1.032130e+00 -1.434811e+00 -1.436763e+00 7.557493e-01 2.410089e+00 -3.251492e-01 -1.070921e+00 8.239064e-01 1.939938e+00 -1.012880e+00 -1.113988e+00 1.407995e-01 -5.117224e-02 -4.783951e-01 -3.117249e-01 -4.310178e-01 5.325980e-01 2.922672e-02 -2.479953e-01 4.118531e-01 6.157683e-01 1.948524e-01 -5.839016e-01 -3.435631e-02 2.245425e-01 -7.073712e-02 -1.219841e-01 -1.309589e-01
<VARIANCE> 39
 1.199125e+01 3.100128e+01 6.672738e+01 5.522567e+01 6.562051e+01 9.056096e+01 9.835684e+01 7.248053e+01 8.975609e+01 5.219272e+01 4.913890e+01 3.543001e+01 2.122239e+00 1.832063e+00 3.611482e+00 3.470930e+00 4.619292e+00 4.899239e+00 4.378382e+00 5.706629e+00 5.725571e+00 4.541598e+00 3.568983e+00 3.524627e+00 2.896764e+00 3.532198e-01 3.869484e-01 3.434613e-01 4.179122e-01 5.845961e-01 6.702951e-01 7.891983e-01 1.012108e+00 8.579475e-01 7.632688e-01 6.392938e-01 6.092157e-01 4.823774e-01 2.911810e-02
<GCONST> 1.256369e+02
<TRANSP> 5
 0.000000e+00 1.000000e+00 0.000000e+00 0.000000e+00 0.000000e+00
 0.000000e+00 5.289274e-01 4.710726e-01 0.000000e+00 0.000000e+00
 0.000000e+00 0.000000e+00 4.946904e-01 5.053096e-01 0.000000e+00
 0.000000e+00 0.000000e+00 0.000000e+00 3.264577e-01 6.735423e-01
 0.000000e+00 0.000000e+00 0.000000e+00 0.000000e+00 0.000000e+00
<ENDHMM>
~h "t"
<BEGINHMM>
<NUMSTATES> 5
<STATE> 2
<MEAN> 39
 -1.892050e+01 -2.324305e+00 -4.687226e+00 -1.236393e+00 -1.364142e+00 -3.108607e-01 -1.467404e+00 -1.883939e-01 -9.123114e-01 5.447665e-01 -5.069117e-01 -4.867676e-01 -1.090044e+01 -5.377024e-01 -1.314512e+00 -7.361327e-01 -7.966639e-01 -3.720271e-03 3.071414e-01 3.809156e-01 4.339081e-01 5.377191e-01 4.528283e-01 3.232229e-01 3.509492e-01 2.007192e-01 5.874022e-01 -3.666698e-01 -1.861744e-02 -7.457142e-01 -4.884974e-01 -6.968079e-01 -3.475130e-01 -8.790523e-02 -2.870756e-01 -1.281086e-01 -1.577807e-01 -6.537874e-02 7.371305e-01
<VARIANCE> 39
 9.998935e+00 1.095506e+01 1.219473e+01 1.420403e+01 1.411623e+01 1.536188e+01 1.575724e+01 1.755829e+01 1.731833e+01 1.535924e+01 1.332051e+01 1.191985e+01 4.073561e+00 3.747205e+00 3.451794e+00 3.011184e+00 3.845568e+00 3.288964e+00 3.686831e+00 3.143793e+00 3.491493e+00 3.552626e+00 2.660436e+00 2.421912e+00 1.958340e+00 1.338336e+00 6.594021e-01 5.409554e-01 5.880831e-01 6.561851e-01 6.458050e-01 6.566284e-01 6.185053e-01 6.211303e-01 5.868697e-01 4.974193e-01 4.625883e-01 3.610830e-01 1.370513e-01
<GCONST> 1.097743e+02
<STATE> 3
<MEAN> 39
 -1.771922e+01 -8.212418e+00 -5.873729e+00 -6.438563e+00 -3.105436e+00 -2.617656e+00 -2.477379e+00 -3.292260e-01 -1.700177e+00 3.256311e-01 -9.514264e-01 -2.396417e-01 -6.556636e+00 3.642420e-02 -1.462252e+00 -6.779874e-01 -1.998759e+00 -6.911805e-01 -8.821833e-01 -1.671364e-01 2.631348e-01 1.081922e-01 1.926026e-01 2.153168e-02 2.645392e-01 1.460169e+00 3.919068e-01 5.330234e-01 3.259757e-01 3.389513e-02 -2.639808e-01 -3.850414e-01 -2.096651e-01 -1.069328e-01 -2.277493e-01 -1.775606e-01 -1.712011e-01 -1.453275e-01 1.456554e-01
<VARIANCE> 39
 3.258607e+01 4.455390e+01 4.066683e+01 4.171628e+01 3.928178e+01 3.400835e+01 3.197787e+01 3.097363e+01 2.740824e+01 2.207767e+01 1.873516e+01 1.581164e+01 6.010569e+00 4.858618e+00 3.608649e+00 4.053210e+00 4.311662e+00 3.851391e+00 4.019070e+00 3.711308e+00 3.674342e+00 3.833882e+00 2.957739e+00 2.663640e+00 2.152915e+00 7.740276e-01 7.985062e-01 8.382938e-01 7.242957e-01 8.481244e-01 8.227895e-01 7.786542e-01 7.494605e-01 7.383130e-01 7.202328e-01 5.716694e-01 5.467966e-01 4.202791e-01 1.369206e-01
<GCONST> 1.231036e+02
<STATE> 4
<MEAN> 39
 -1.849423e+01 -7.241725e+00 -3.852108e+00 -7.774209e+00 -5.596538e+00 -6.714453e+00 -9.832263e-01 9.414796e-01 -1.563661e+00 -1.499532e+00 -2.413518e+00 4.308457e-02 -4.360301e+00 3.205270e+00 -2.987491e-01 4.605551e-01 5.633189e-01 -7.702059e-01 -9.046050e-01 -1.309110e+00 -3.433589e-01 -4.854245e-01 -5.753533e-01 -9.350238e-01 -7.007295e-01 1.608566e-01 7.797504e-01 -1.081257e-01 -1.004669e-01 -1.172639e-01 -1.605169e-01 1.594381e-01 -5.701525e-01 -1.777309e-01 -1.314189e-01 2.648882e-02 9.213286e-02 -1.501423e-01 2.520365e-02
<VARIANCE> 39
 2.586847e+01 2.857648e+01 2.643202e+01 2.715106e+01 2.886203e+01 2.844051e+01 3.366603e+01 2.828145e+01 2.643406e+01 2.176502e+01 1.952646e+01 1.734786e+01 1.966420e+00 4.456964e+00 2.946646e+00 4.160259e+00 3.609068e+00 4.854924e+00 4.671083e+00 4.709596e+00 3.575860e+00 3.738955e+00 3.158588e+00 3.078765e+00 2.338724e+00 3.986704e-01 5.575365e-01 5.253838e-01 5.624387e-01 6.634787e-01 6.663375e-01 7.586389e-01 7.882815e-01 7.040000e-01 6.288448e-01 5.689353e-01 5.550729e-01 4.743002e-01 1.079093e-01
<GCONST> 1.179635e+02
<TRANSP> 5
 0.000000e+00 1.000000e+00 0.000000e+00 0.000000e+00 0.000000e+00
 0.000000e+00 5.000000e-01 5.000000e-01 0.000000e+00 0.000000e+00
 0.000000e+00 0.000000e+00 5.000000e-01 5.000000e-01 0.000000e+00
 0.000000e+00 0.000000e+00 0.000000e+00 5.000000e-01 5.000000e-01
 0.000000e+00 0.000000e+00 0.000000e+00 0.000000e+00 0.000000e+00
<ENDHMM>
~h "uw"
<BEGINHMM>
<NUMSTATES> 5
<STATE> 2
<MEAN> 39
 -4.089445e+00 -9.668437e+00 3.925746e+00 -7.844073e+00 -1.520436e+01 -1.083072e+01 -1.452013e+01 -9.903376e-01 -9.134157e+00 -4.141346e+00 -5.647581e-01 -2.698728e+00 -1.872703e+00 1.007937e+00 -6.468939e-01 -3.708944e-01 -4.441537e-01 -3.484491e-01 1.882694e-01 -1.297663e+00 1.291630e-01 -4.567895e-02 3.035050e-01 4.227093e-01 -3.066169e-01 2.092607e-01 -6.621019e-01 4.370346e-01 -4.031270e-01 -1.924334e-02 5.862733e-01 4.190643e-01 6.951845e-01 -2.606776e-01 1.984040e-01 2.507419e-01 -9.000196e-02 1.867643e-02 -1.453363e-01
<VARIANCE> 39
 1.409231e+01 2.397873e+01 6.307664e+01 6.780535e+01 4.419759e+01 6.646230e+01 6.020684e+01 6.643138e+01 6.556490e+01 6.142342e+01 6.013081e+01 3.283908e+01 1.080060e+00 1.787298e+00 1.826701e+00 3.387232e+00 2.728112e+00 4.432955e+00 3.714463e+00 4.225864e+00 4.279329e+00 3.628401e+00 3.794723e+00 2.867531e+00 2.415060e+00 8.483582e-02 4.344866e-01 2.896997e-01 4.931350e-01 5.782449e-01 6.093674e-01 6.953346e-01 7.009947e-01 8.471893e-01 8.071272e-01 6.159238e-01 5.679414e-01 4.535808e-01 1.377630e-02
<GCONST> 1.182529e+02
<STATE> 3
<MEAN> 39
 -3.055546e+00 -8.372910e+00 6.251654e-01 -8.915179e+00 -1.318085e+01 -8.836787e+00 -1.454949e+01 -2.609376e+00 -8.258515e+00 -2.402473e+00 -3.710243e-01 -3.471562e+00 -1.978966e+00 9.313247e-02 2.548211e-01 -3.622762e-01 -1.434568e-02 3.541122e-01 2.705759e-01 6.695826e-02 -3.119532e-01 2.047177e-02 1.816304e-01 -9.456547e-02 -1.079896e-01 -8.276885e-02 -1.350741e-01 1.286683e-01 -5.853129e-03 7.580555e-02 1.102877e-01 9.047364e-03 2.211122e-01 -7.188703e-02 5.161554e-02 -2.596254e-02 -8.679281e-02 3.531554e-02 -5.303317e-02
<VARIANCE> 39
 1.312590e+01 2.693354e+01 6.002624e+01 6.610252e+01 4.434223e+01 8.036263e+01 6.681509e+01 6.880780e+01 6.296121e+01 6.469646e+01 7.160105e+01 3.801289e+01 1.413365e+00 2.880540e-01 6.002377e-01 1.207954e+00 1.278541e+00 1.428996e+00 1.789752e+00 1.728710e+00 1.933720e+00 1.849333e+00 1.733879e+00 1.487424e+00 1.247332e+00 2.370970e-02 1.025496e-01 1.537818e-01 1.733786e-01 2.076203e-01 2.956639e-01 3.148645e-01 4.087391e-01 3.637975e-01 3.571201e-01 3.180236e-01 2.832857e-01 2.371430e-01 1.000000e-02
<GCONST> 9.664216e+01
<STATE> 4
<MEAN> 39
 -4.125716e+00 -6.077404e+00 -5.350816e-01 -7.647099e+00 -1.103360e+01 -8.534043e+00 -1.281087e+01 -4.707764e+00 -8.428649e+00 -2.254760e+00 -1.781890e+00 -2.983600e+00 -3.005796e+00 -1.072047e+00 1.192634e+00 -7.591659e-01 4.944581e-01 1.334846e+00 4.766040e-01 1.623603e+00 -4.123034e-01 7.411889e-01 4.706568e-02 -4.992494e-01 8.702019e-02 -4.732303e-01 -5.075150e-01 8.836146e-02 -1.744362e-03 7.717600e-02 1.668410e-01 1.405139e-01 3.841894e-01 2.528359e-01 1.085825e-01 -4.751652e-02 -2.833574e-02 4.575609e-02 -7.878914e-02
<VARIANCE> 39
 2.187823e+01 2.896630e+01 7.011171e+01 6.275089e+01 4.930872e+01 7.559881e+01 6.055956e+01 5.845877e+01 5.964304e+01 6.438210e+01 6.853106e+01 3.934272e+01 2.901818e+00 2.612103e+00 3.351963e+00 2.790137e+00 3.907587e+00 4.522754e+00 5.359142e+00 5.155845e+00 5.617016e+00 5.138992e+00 5.045203e+00 4.291455e+00 3.200858e+00 2.643847e-01 3.917344e-01 4.586678e-01 4.478595e-01 4.956002e-01 6.624668e-01 7.861850e-01 7.627246e-01 7.173598e-01 7.714761e-01 7.529341e-01 6.504087e-01 5.220656e-01 4.666304e-02
<GCONST> 1.266239e+02
<TRANSP> 5
 0.000000e+00 1.000000e+00 0.000000e+00 0.000000e+00 0.000000e+00
 0.000000e+00 4.280276e-01 5.719724e-01 0.000000e+00 0.000000e+00
 0.000000e+00 0.000000e+00 8.003018e-01 1.996982e-01 0.000000e+00
 0.000000e+00 0.000000e+00 0.000000e+00 5.801057e-01 4.198943e-01
 0.000000e+00 0.000000e+00 0.000000e+00 0.000000e+00 0.000000e+00
<ENDHMM>
~h "w"
<BEGINHMM>
<NUMSTATES> 5
<STATE> 2
<MEAN> 39
 -2.378053e-01 -1.109774e-01 -8.506446e+00 -1.453994e+01 -1.091955e+01 -2.616458e+00 -5.683800e+00 -4.864906e+00 -9.326594e+00 -2.713353e+00 -1.656283e+00 -2.080127e+00 -3.825176e+00 1.686243e+00 6.516797e-01 -8.483734e-02 -1.878202e+00 -1.450031e+00 3.362607e-01 1.301119e-02 -2.050979e-01 -7.175109e-01 -4.048690e-01 3.995565e-02 -4.616048e-02 5.570403e-01 -4.548917e-01 -6.177335e-01 4.084471e-02 1.418724e-01 1.453525e-01 -1.393273e-01 -2.036295e-01 3.049075e-01 4.087425e-01 2.741595e-01 1.983237e-02 -5.041340e-03 1.147272e-02
<VARIANCE> 39
 1.800785e+01 3.055625e+01 2.643671e+01 5.079036e+01 4.221148e+01 4.105965e+01 4.492493e+01 3.997179e+01 4.681069e+01 3.884879e+01 4.492467e+01 2.572182e+01 3.713457e+00 3.663174e+00 3.486735e+00 3.047116e+00 4.540174e+00 3.898961e+00 4.639326e+00 6.621083e+00 4.552141e+00 4.761693e+00 4.481720e+00 4.068394e+00 2.849980e+00 7.301731e-01 4.985139e-01 4.733539e-01 4.928364e-01 7.149244e-01 8.498603e-01 7.945268e-01 8.843251e-01 7.790362e-01 8.391967e-01 7.627903e-01 6.664427e-01 5.200801e-01 4.809487e-02
<GCONST> 1.248906e+02
<STATE> 3
<MEAN> 39
 2.371805e+00 -8.968273e-01 -8.805236e+00 -2.047367e+01 -1.528434e+01 -9.788148e-02 -4.880797e+00 -2.659530e+00 -8.889580e+00 -3.842099e+00 -5.303314e-01 -1.665236e+00 -2.203731e+00 1.348303e-01 -1.181935e+00 -4.193243e-01 -5.836908e-01 3.791379e-01 6.608529e-01 -5.907875e-01 -2.212175e-01 5.432152e-02 6.451771e-01 7.037480e-01 2.139329e-01 3.338451e-01 -3.338905e-01 -4.437107e-01 -9.785363e-03 5.196973e-01 5.035273e-01 -1.946498e-01 -3.298631e-01 -3.916745e-02 3.139046e-01 3.472944e-01 4.192046e-02 -1.229580e-01 -4.068096e-02
<VARIANCE> 39
 6.583491e+00 2.961354e+01 3.321679e+01 4.965163e+01 5.089474e+01 5.438437e+01 4.867004e+01 4.873531e+01 5.326575e+01 4.511612e+01 4.763435e+01 3.135026e+01 1.567766e+00 4.958878e-01 2.530643e+00 1.707715e+00 2.549433e+00 3.525180e+00 3.413998e+00 3.886882e+00 3.183326e+00 3.018134e+00 3.811808e+00 3.214622e+00 2.372465e+00 1.177083e-01 2.655618e-01 2.445392e-01 3.056711e-01 5.319852e-01 4.705825e-01 7.148523e-01 6.574379e-01 6.464192e-01 7.650217e-01 6.136193e-01 6.112607e-01 5.384944e-01 2.965588e-02
<GCONST> 1.127532e+02
<STATE> 4
<MEAN> 39
 8.710419e-01 -9.089808e+00 -1.019561e+01 -1.707331e+01 -8.498037e+00 -1.007398e+00 -1.221477e+01 -5.298457e+00 -6.790123e+00 3.460774e+00 1.695715e+00 -3.345761e+00 -1.240068e+00 -7.591020e-01 -1.852399e+00 7.469120e-01 1.694401e+00 5.825800e-01 -2.108889e+00 -1.604142e+00 1.229970e+00 2.162508e+00 8.168880e-01 -9.617290e-01 -1.070006e+00 1.872826e-01 -3.209210e-01 4.302254e-01 4.643000e-01 3.157178e-01 -4.336763e-01 -5.083842e-01 6.546314e-01 5.931813e-01 1.051688e-01 -7.864856e-01 -5.740520e-01 1.215414e-01 -1.377818e-01
<VARIANCE> 39
 8.562952e+00 2.794992e+01 4.406792e+01 6.636012e+01 4.708761e+01 8.264172e+01 6.919739e+01 5.683970e+01 6.552644e+01 6.925877e+01 8.718914e+01 4.017579e+01 1.437049e+00 4.900264e-01 1.495693e+00 2.657313e+00 2.705834e+00 3.744826e+00 4.371620e+00 4.576042e+00 4.735920e+00 3.260056e+00 5.074342e+00 3.570971e+00 3.013052e+00 5.249143e-02 2.182006e-01 2.840270e-01 3.356774e-01 5.816811e-01 6.465858e-01 8.484333e-01 9.053243e-01 7.370688e-01 1.011893e+00 8.042352e-01 8.178109e-01 6.994671e-01 1.924103e-02
<GCONST> 1.182573e+02
<TRANSP> 5
 0.000000e+00 1.000000e+00 0.000000e+00 0.000000e+00 0.000000e+00
 0.000000e+00 5.477335e-01 4.522665e-01 0.000000e+00 0.000000e+00
 0.000000e+00 0.000000e+00 6.975146e-01 3.024854e-01 0.000000e+00
 0.000000e+00 0.000000e+00 0.000000e+00 5.473197e-01 4.526803e-01
 0.000000e+00 0.000000e+00 0.000000e+00 0.000000e+00 0.000000e+00
<ENDHMM>
~h "ah"
<BEGINHMM>
<NUMSTATES> 5
<STATE> 2
<MEAN> 39
 -2.384203e+00 -1.298434e+01 -9.327827e+00 -1.574190e+01 -8.587043e+00 -3.656979e+00 -1.010273e+01 -2.895270e-02 3.123649e-01 1.706276e-01 -4.227306e+00 -5.666430e+00 -8.953738e-01 1.008065e+00 -1.665291e+00 -6.258246e-01 -1.268629e+00 1.190243e-02 6.721819e-01 -5.870072e-01 6.375433e-01 9.512351e-01 2.733177e-02 -4.686837e-01 -7.502646e-01 5.138501e-01 -6.873826e-01 5.430055e-01 2.065547e-01 5.440814e-01 2.982608e-01 -6.759894e-02 4.379547e-01 -1.969007e-01 -2.986368e-01 -1.147185e-01 1.037838e-01 2.765874e-01 -2.174453e-01
<VARIANCE> 39
 1.180070e+01 2.639503e+01 4.108421e+01 4.457001e+01 4.898495e+01 8.232156e+01 6.335782e+01 5.839138e+01 5.587996e+01 6.002249e+01 7.401813e+01 4.130536e+01 1.532897e+00 2.850214e+00 2.255725e+00 2.568412e+00 3.721409e+00 3.758389e+00 4.697872e+00 4.287052e+00 4.262446e+00 3.936812e+00 3.742255e+00 3.589975e+00 2.948183e+00 2.668449e-01 5.048035e-01 3.760526e-01 4.042455e-01 5.557792e-01 6.022546e-01 8.023492e-01 7.765383e-01 7.677380e-01 6.805099e-01 6.242718e-01 7.285756e-01 5.422150e-01 3.226386e-02
<GCONST> 1.220250e+02
<STATE> 3
<MEAN> 39
 -2.392046e+00 -1.417937e+01 -1.025648e+01 -1.624990e+01 -6.729639e+00 -2.993178e+00 -9.425033e+00 6.173980e-01 1.086288e+00 -8.816276e-01 -5.447381e+00 -5.854043e+00 -5.731584e-01 -7.990707e-03 3.178644e-01 9.469333e-02 1.560344e-01 9.219205e-02 -2.327672e-01 -3.420415e-02 -1.480396e-01 -8.290054e-02 -2.131944e-02 -6.678024e-02 6.336602e-02 -9.578308e-02 -1.092015e-01 4.869184e-01 2.358468e-01 3.323434e-01 -7.980830e-02 -2.236726e-01 5.305909e-02 -2.536107e-01 -3.335108e-01 2.748397e-02 1.187604e-01 1.724341e-01 -1.422758e-01
<VARIANCE> 39
 1.002368e+01 2.432681e+01 3.382311e+01 4.345953e+01 4.821678e+01 7.687334e+01 6.457238e+01 5.189580e+01 5.872079e+01 6.439259e+01 6.223120e+01 4.383935e+01 1.140385e+00 3.780159e-01 9.457923e-01 1.297549e+00 1.476699e+00 1.721507e+00 2.415527e+00 2.042959e+00 2.162034e+00 1.895218e+00 1.800802e+00 1.927282e+00 1.674584e+00 4.705211e-02 1.199876e-01 2.340738e-01 1.994090e-01 3.065397e-01 3.229315e-01 3.779621e-01 4.517278e-01 4.606757e-01 4.138252e-01 3.763147e-01 3.404127e-01 3.393291e-01 1.426716e-02
<GCONST> 1.006490e+02
<STATE> 4
<MEAN> 39
 -2.382109e+00 -1.013032e+01 -8.142673e+00 -1.389068e+01 -7.866870e+00 -5.838463e+00 -1.010165e+01 -1.364004e+00 -8.016328e-01 1.510269e-01 -4.162044e+00 -4.612607e+00 -1.737438e+00 -1.177923e+00 2.611525e+00 1.205460e+00 2.202505e+00 4.488875e-01 -4.638529e-01 6.539987e-01 -1.305030e+00 -1.446020e+00 -3.957059e-01 1.715232e-01 6.228715e-01 -8.805453e-01 -6.607659e-01 3.203505e-01 1.545948e-01 4.142892e-01 2.311660e-01 2.776657e-01 4.083714e-01 -1.349422e-01 -1.895593e-01 -1.531065e-01 -2.550566e-02 4.576441e-02 -1.752300e-01
<VARIANCE> 39
 1.268206e+01 3.161074e+01 3.999792e+01 4.907661e+01 4.590785e+01 7.729543e+01 6.227335e+01 5.883860e+01 5.714238e+01 6.549670e+01 6.877774e+01 4.259456e+01 2.091597e+00 2.959626e+00 2.687311e+00 2.709276e+00 3.917742e+00 4.300757e+00 4.823860e+00 5.112659e+00 5.239483e+00 4.843954e+00 4.795657e+00 4.296480e+00 3.486060e+00 2.904137e-01 4.428510e-01 5.471367e-01 4.078152e-01 6.694868e-01 5.757089e-01 7.833517e-01 7.099382e-01 9.327937e-01 6.976520e-01 7.370598e-01 7.338661e-01 5.455841e-01 5.627012e-02
<GCONST> 1.255712e+02
<TRANSP> 5
 0.000000e+00 1.000000e+00 0.000000e+00 0.000000e+00 0.000000e+00
 0.000000e+00 4.781988e-01 5.218012e-01 0.000000e+00 0.000000e+00
 0.000000e+00 0.000000e+00 7.585764e-01 2.414236e-01 0.000000e+00
 0.000000e+00 0.000000e+00 0.000000e+00 5.706824e-01 4.293176e-01
 0.000000e+00 0.000000e+00 0.000000e+00 0.000000e+00 0.000000e+00
<ENDHMM>
~h "n"
<BEGINHMM>
<NUMSTATES> 5
<STATE> 2
<MEAN> 39
 -4.173611e+00 -3.370436e+00 -2.239525e+00 -5.754709e+00 -1.100467e+01 -8.096184e+00 -3.648773e+00 -8.349697e+00 -9.239568e+00 -7.876282e-01 -6.775628e+00 -3.990673e+00 -4.136813e+00 2.131780e-02 1.264075e+00 2.606204e-01 9.241176e-01 -1.064779e-01 -1.105372e-01 8.433201e-01 -1.945086e+00 -8.872706e-01 6.706058e-01 -4.913497e-01 -6.075297e-02 -2.707001e-01 -1.730303e-01 -2.589595e-01 -4.675633e-02 -3.305193e-01 1.015970e-01 1.562167e-01 -2.587543e-01 6.190946e-01 3.320381e-01 -2.792731e-01 1.837806e-01 7.935039e-02 5.914706e-02
<VARIANCE> 39
 8.326270e+00 2.691922e+01 3.029107e+01 4.900280e+01 4.427206e+01 4.703382e+01 5.038797e+01 7.191138e+01 6.206874e+01 5.499498e+01 5.182435e+01 4.444766e+01 1.945055e+00 8.884823e-01 2.176347e+00 2.483506e+00 2.682933e+00 2.787548e+00 3.095493e+00 3.584273e+00 5.679301e+00 4.143991e+00 3.210437e+00 2.684989e+00 2.206512e+00 1.518709e-01 1.958946e-01 2.893623e-01 3.826152e-01 4.219200e-01 4.932129e-01 4.989847e-01 5.450682e-01 7.955703e-01 6.304689e-01 5.321527e-01 4.622513e-01 4.158604e-01 1.439603e-02
<GCONST> 1.130650e+02
<STATE> 3
<MEAN> 39
 -3.968008e+00 -1.646686e+00 -2.215637e+00 -4.943655e+00 -1.171806e+01 -8.376256e+00 -2.856408e+00 -1.079985e+01 -1.049488e+01 -1.504948e-01 -7.393038e+00 -4.127079e+00 -4.264421e+00 -5.784777e-01 2.951783e-01 1.649091e-01 -5.419636e-02 5.818164e-01 2.123398e-01 -4.105967e-01 4.612277e-01 2.464691e-01 -5.051419e-01 2.062386e-01 9.061617e-02 -1.308152e-01 -4.885805e-01 -7.174881e-01 -1.079680e-01 -6.038970e-01 3.109166e-01 3.036421e-01 -4.914800e-01 1.324325e+00 7.364231e-01 -4.256114e-01 3.946224e-01 1.414978e-01 9.121803e-02
<VARIANCE> 39
 8.553438e+00 2.930980e+01 2.804076e+01 4.870023e+01 4.416180e+01 4.733860e+01 5.427853e+01 7.114278e+01 6.112367e+01 5.666138e+01 5.884408e+01 4.919191e+01 1.925217e+00 1.561065e+00 3.369333e+00 2.081892e+00 3.045504e+00 3.171586e+00 2.828886e+00 3.585076e+00 5.511392e+00 3.954414e+00 3.047210e+00 2.662725e+00 2.439824e+00 2.302697e-01 4.308361e-01 4.802664e-01 6.600280e-01 6.801986e-01 8.145006e-01 8.069484e-01 9.443831e-01 1.107355e+00 1.068700e+00 8.824259e-01 7.788248e-01 6.609712e-01 3.401092e-02
<GCONST> 1.218221e+02
<STATE> 4
<MEAN> 39
 -6.697446e+00 -3.234138e+00 -2.008603e+00 -6.405807e+00 -8.916270e+00 -7.114817e+00 -5.538602e+00 -5.301977e+00 -7.361317e+00 -2.924337e+00 -5.900564e+00 -3.616803e+00 -4.624671e+00 -1.289870e+00 -8.941665e-01 -2.698314e-01 -9.463536e-01 8.088672e-01 7.439819e-01 -6.712482e-01 2.176902e+00 1.327724e+00 -6.659224e-01 7.048733e-01 3.105567e-01 3.972982e-02 -2.004641e-01 -3.554881e-01 -2.017921e-01 -2.699706e-01 -6.703168e-02 1.646377e-01 9.745026e-02 3.154702e-01 2.419935e-01 1.405159e-01 1.509853e-01 1.012353e-01 9.757176e-02
<VARIANCE> 39
 2.198848e+01 4.490345e+01 3.313978e+01 5.115663e+01 4.537062e+01 4.147235e+01 4.832558e+01 6.384851e+01 5.879162e+01 4.545790e+01 4.046808e+01 3.633840e+01 4.502237e+00 4.302024e+00 4.135014e+00 3.879684e+00 4.755993e+00 5.127475e+00 4.337250e+00 5.373229e+00 6.866387e+00 5.695043e+00 4.700459e+00 4.232950e+00 3.375184e+00 4.484453e-01 5.056077e-01 6.217130e-01 4.810100e-01 6.278053e-01 6.667209e-01 6.293745e-01 7.423610e-01 1.061627e+00 8.483686e-01 6.779441e-01 6.092845e-01 5.030655e-01 4.554177e-02
<GCONST> 1.276333e+02
<TRANSP> 5
 0.000000e+00 1.000000e+00 0.000000e+00 0.000000e+00 0.000000e+00
 0.000000e+00 5.967619e-01 4.032381e-01 0.000000e+00 0.000000e+00
 0.000000e+00 0.000000e+00 3.567837e-01 6.432163e-01 0.000000e+00
 0.000000e+00 0.000000e+00 0.000000e+00 3.566752e-01 6.433249e-01
 0.000000e+00 0.000000e+00 0.000000e+00 0.000000e+00 0.000000e+00
<ENDHMM>
~h "td"
<BEGINHMM>
<NUMSTATES> 5
<STATE> 2
<MEAN> 39
 -1.892050e+01 -2.324305e+00 -4.687226e+00 -1.236393e+00 -1.364142e+00 -3.108607e-01 -1.467404e+00 -1.883939e-01 -9.123114e-01 5.447665e-01 -5.069117e-01 -4.867676e-01 -1.090044e+01 -5.377024e-01 -1.314512e+00 -7.361327e-01 -7.966639e-01 -3.720271e-03 3.071414e-01 3.809156e-01 4.339081e-01 5.377191e-01 4.528283e-01 3.232229e-01 3.509492e-01 2.007192e-01 5.874022e-01 -3.666698e-01 -1.861744e-02 -7.457142e-01 -4.884974e-01 -6.968079e-01 -3.475130e-01 -8.790523e-02 -2.870756e-01 -1.281086e-01 -1.577807e-01 -6.537874e-02 7.371305e-01
<VARIANCE> 39
 9.998935e+00 1.095506e+01 1.219473e+01 1.420403e+01 1.411623e+01 1.536188e+01 1.575724e+01 1.755829e+01 1.731833e+01 1.535924e+01 1.332051e+01 1.191985e+01 4.073561e+00 3.747205e+00 3.451794e+00 3.011184e+00 3.845568e+00 3.288964e+00 3.686831e+00 3.143793e+00 3.491493e+00 3.552626e+00 2.660436e+00 2.421912e+00 1.958340e+00 1.338336e+00 6.594021e-01 5.409554e-01 5.880831e-01 6.561851e-01 6.458050e-01 6.566284e-01 6.185053e-01 6.211303e-01 5.868697e-01 4.974193e-01 4.625883e-01 3.610830e-01 1.370513e-01
<GCONST> 1.097743e+02
<STATE> 3
<MEAN> 39
 -1.771922e+01 -8.212418e+00 -5.873729e+00 -6.438563e+00 -3.105436e+00 -2.617656e+00 -2.477379e+00 -3.292260e-01 -1.700177e+00 3.256311e-01 -9.514264e-01 -2.396417e-01 -6.556636e+00 3.642420e-02 -1.462252e+00 -6.779874e-01 -1.998759e+00 -6.911805e-01 -8.821833e-01 -1.671364e-01 2.631348e-01 1.081922e-01 1.926026e-01 2.153168e-02 2.645392e-01 1.460169e+00 3.919068e-01 5.330234e-01 3.259757e-01 3.389513e-02 -2.639808e-01 -3.850414e-01 -2.096651e-01 -1.069328e-01 -2.277493e-01 -1.775606e-01 -1.712011e-01 -1.453275e-01 1.456554e-01
<VARIANCE> 39
 3.258607e+01 4.455390e+01 4.066683e+01 4.171628e+01 3.928178e+01 3.400835e+01 3.197787e+01 3.097363e+01 2.740824e+01 2.207767e+01 1.873516e+01 1.581164e+01 6.010569e+00 4.858618e+00 3.608649e+00 4.053210e+00 4.311662e+00 3.851391e+00 4.019070e+00 3.711308e+00 3.674342e+00 3.833882e+00 2.957739e+00 2.663640e+00 2.152915e+00 7.740276e-01 7.985062e-01 8.382938e-01 7.242957e-01 8.481244e-01 8.227895e-01 7.786542e-01 7.494605e-01 7.383130e-01 7.202328e-01 5.716694e-01 5.467966e-01 4.202791e-01 1.369206e-01
<GCONST> 1.231036e+02
<STATE> 4
<MEAN> 39
 -1.849423e+01 -7.241725e+00 -3.852108e+00 -7.774209e+00 -5.596538e+00 -6.714453e+00 -9.832263e-01 9.414796e-01 -1.563661e+00 -1.499532e+00 -2.413518e+00 4.308457e-02 -4.360301e+00 3.205270e+00 -2.987491e-01 4.605551e-01 5.633189e-01 -7.702059e-01 -9.046050e-01 -1.309110e+00 -3.433589e-01 -4.854245e-01 -5.753533e-01 -9.350238e-01 -7.007295e-01 1.608566e-01 7.797504e-01 -1.081257e-01 -1.004669e-01 -1.172639e-01 -1.605169e-01 1.594381e-01 -5.701525e-01 -1.777309e-01 -1.314189e-01 2.648882e-02 9.213286e-02 -1.501423e-01 2.520365e-02
<VARIANCE> 39
 2.586847e+01 2.857648e+01 2.643202e+01 2.715106e+01 2.886203e+01 2.844051e+01 3.366603e+01 2.828145e+01 2.643406e+01 2.176502e+01 1.952646e+01 1.734786e+01 1.966420e+00 4.456964e+00 2.946646e+00 4.160259e+00 3.609068e+00 4.854924e+00 4.671083e+00 4.709596e+00 3.575860e+00 3.738955e+00 3.158588e+00 3.078765e+00 2.338724e+00 3.986704e-01 5.575365e-01 5.253838e-01 5.624387e-01 6.634787e-01 6.663375e-01 7.586389e-01 7.882815e-01 7.040000e-01 6.288448e-01 5.689353e-01 5.550729e-01 4.743002e-01 1.079093e-01
<GCONST> 1.179635e+02
<TRANSP> 5
 0.000000e+00 1.000000e+00 0.000000e+00 0.000000e+00 0.000000e+00
 0.000000e+00 5.000000e-01 5.000000e-01 0.000000e+00 0.000000e+00
 0.000000e+00 0.000000e+00 3.333333e-01 3.333333e-01 3.333333e-01
 0.000000e+00 0.000000e+00 0.000000e+00 5.000000e-01 5.000000e-01
 0.000000e+00 0.000000e+00 0.000000e+00 0.000000e+00 0.000000e+00
<ENDHMM>
~h "d"
<BEGINHMM>
<NUMSTATES> 5
<STATE> 2
<MEAN> 39
 -1.187069e+01 1.881705e+00 -5.520328e-01 3.171725e-01 -2.007717e+00 -2.566136e+00 -4.938379e+00 -4.683956e+00 -5.657830e+00 -3.621389e+00 -3.862141e+00 -3.201461e+00 -8.567732e+00 -1.546453e+00 -1.668881e+00 -8.705049e-01 -1.032807e+00 4.341868e-01 5.950124e-01 7.321989e-01 8.434945e-01 9.218905e-01 6.761196e-01 6.208973e-01 5.683907e-01 5.373520e-02 2.777768e-01 -8.778399e-01 -2.490601e-01 -1.064725e+00 -7.699211e-01 -5.563876e-01 -2.583409e-01 2.697971e-01 1.623825e-01 2.560153e-01 2.302396e-01 2.148819e-01 5.819767e-01
<VARIANCE> 39
 3.871142e+01 2.618269e+01 2.733258e+01 2.868161e+01 2.720914e+01 3.064567e+01 3.031709e+01 3.304488e+01 3.293890e+01 2.651493e+01 2.457058e+01 1.926967e+01 5.705230e+00 3.609108e+00 4.356986e+00 3.405393e+00 4.217702e+00 3.833694e+00 3.919183e+00 3.744586e+00 4.153022e+00 3.867249e+00 3.202001e+00 3.004318e+00 2.306687e+00 5.302773e-01 6.056266e-01 8.485448e-01 7.434338e-01 8.557802e-01 7.537763e-01 7.013645e-01 7.338632e-01 7.944290e-01 7.368815e-01 6.634198e-01 5.597920e-01 4.581394e-01 9.305938e-02
<GCONST> 1.215179e+02
<STATE> 3
<MEAN> 39
 -1.380207e+01 -4.106205e+00 -2.631286e+00 -4.031992e+00 -2.648503e+00 -2.654665e+00 -3.992504e+00 -2.862296e+00 -4.011915e+00 -2.264048e+00 -2.655491e+00 -1.931448e+00 -6.850338e+00 -8.781413e-01 -2.329094e+00 -9.686858e-01 -2.480415e+00 -8.216463e-01 -4.973181e-01 8.122384e-02 9.301051e-01 9.492311e-01 8.373645e-01 8.162870e-01 8.131088e-01 1.025109e+00 7.195183e-01 4.030079e-02 1.595297e-01 -4.182236e-01 -7.700673e-01 -5.567055e-01 -4.459215e-01 -3.647296e-02 -1.752937e-01 -8.794422e-03 -3.424909e-02 -3.473063e-02 3.634976e-01
<VARIANCE> 39
 4.609700e+01 4.610304e+01 3.947778e+01 4.439331e+01 3.548025e+01 3.593275e+01 3.314109e+01 3.267379e+01 3.308242e+01 2.578073e+01 2.241734e+01 1.772599e+01 6.587080e+00 5.593340e+00 4.403532e+00 4.410000e+00 4.750644e+00 4.470994e+00 4.440341e+00 4.582630e+00 4.634848e+00 4.359799e+00 3.516900e+00 3.153291e+00 2.468863e+00 5.467138e-01 7.324588e-01 1.072625e+00 8.508017e-01 1.032150e+00 9.480075e-01 9.165289e-01 8.803497e-01 9.162260e-01 8.607819e-01 7.371264e-01 7.092699e-01 4.892320e-01 8.076132e-02
<GCONST> 1.272767e+02
<STATE> 4
<MEAN> 39
 -1.152951e+01 -5.399796e+00 -6.517791e-01 -9.477132e+00 -9.344363e+00 -1.007641e+01 -7.042903e+00 -1.769197e+00 -3.181676e+00 -2.343513e+00 -2.434306e+00 -3.189108e-01 -3.197309e+00 2.217976e+00 -4.923455e-01 4.969337e-01 -7.743727e-01 -2.096328e+00 -1.672876e+00 -1.672562e+00 5.953589e-01 1.171352e-01 2.334771e-01 -2.291614e-01 8.859739e-02 7.501148e-01 4.363321e-01 2.990309e-01 -8.327494e-02 6.537685e-01 2.598653e-01 5.104223e-01 1.562919e-02 -1.481818e-01 -1.713700e-01 -4.109250e-02 -2.463635e-01 -3.344376e-01 -2.720208e-01
<VARIANCE> 39
 4.017448e+01 3.531164e+01 4.180549e+01 4.297855e+01 4.413027e+01 4.126839e+01 4.578101e+01 3.716766e+01 3.787133e+01 2.461274e+01 2.270850e+01 1.892219e+01 2.757050e+00 5.308168e+00 4.370759e+00 5.453950e+00 5.825969e+00 6.794315e+00 5.493189e+00 6.508540e+00 5.828861e+00 5.591875e+00 4.210355e+00 4.437317e+00 3.253027e+00 4.207090e-01 4.096860e-01 8.217536e-01 5.702770e-01 7.429511e-01 6.725056e-01 6.955692e-01 7.456657e-01 7.409103e-01 7.124133e-01 5.715035e-01 5.341341e-01 4.402450e-01 4.941485e-02
<GCONST> 1.254565e+02
<TRANSP> 5
 0.000000e+00 1.000000e+00 0.000000e+00 0.000000e+00 0.000000e+00
 0.000000e+00 5.000000e-01 5.000000e-01 0.000000e+00 0.000000e+00
 0.000000e+00 0.000000e+00 5.000000e-01 5.000000e-01 0.000000e+00
 0.000000e+00 0.000000e+00 0.000000e+00 5.000000e-01 5.000000e-01
 0.000000e+00 0.000000e+00 0.000000e+00 0.000000e+00 0.000000e+00
<ENDHMM>
~h "b"
<BEGINHMM>
<NUMSTATES> 5
<STATE> 2
<MEAN> 39
 -1.187069e+01 1.881705e+00 -5.520328e-01 3.171725e-01 -2.007717e+00 -2.566136e+00 -4.938379e+00 -4.683956e+00 -5.657830e+00 -3.621389e+00 -3.862141e+00 -3.201461e+00 -8.567732e+00 -1.546453e+00 -1.668881e+00 -8.705049e-01 -1.032807e+00 4.341868e-01 5.950124e-01 7.321989e-01 8.434945e-01 9.218905e-01 6.761196e-01 6.208973e-01 5.683907e-01 5.373520e-02 2.777768e-01 -8.778399e-01 -2.490601e-01 -1.064725e+00 -7.699211e-01 -5.563876e-01 -2.583409e-01 2.697971e-01 1.623825e-01 2.560153e-01 2.302396e-01 2.148819e-01 5.819767e-01
<VARIANCE> 39
 3.871142e+01 2.618269e+01 2.733258e+01 2.868161e+01 2.720914e+01 3.064567e+01 3.031709e+01 3.304488e+01 3.293890e+01 2.651493e+01 2.457058e+01 1.926967e+01 5.705230e+00 3.609108e+00 4.356986e+00 3.405393e+00 4.217702e+00 3.833694e+00 3.919183e+00 3.744586e+00 4.153022e+00 3.867249e+00 3.202001e+00 3.004318e+00 2.306687e+00 5.302773e-01 6.056266e-01 8.485448e-01 7.434338e-01 8.557802e-01 7.537763e-01 7.013645e-01 7.338632e-01 7.944290e-01 7.368815e-01 6.634198e-01 5.597920e-01 4.581394e-01 9.305938e-02
<GCONST> 1.215179e+02
<STATE> 3
<MEAN> 39
 -1.380207e+01 -4.106205e+00 -2.631286e+00 -4.031992e+00 -2.648503e+00 -2.654665e+00 -3.992504e+00 -2.862296e+00 -4.011915e+00 -2.264048e+00 -2.655491e+00 -1.931448e+00 -6.850338e+00 -8.781413e-01 -2.329094e+00 -9.686858e-01 -2.480415e+00 -8.216463e-01 -4.973181e-01 8.122384e-02 9.301051e-01 9.492311e-01 8.373645e-01 8.162870e-01 8.131088e-01 1.025109e+00 7.195183e-01 4.030079e-02 1.595297e-01 -4.182236e-01 -7.700673e-01 -5.567055e-01 -4.459215e-01 -3.647296e-02 -1.752937e-01 -8.794422e-03 -3.424909e-02 -3.473063e-02 3.634976e-01
<VARIANCE> 39
 4.609700e+01 4.610304e+01 3.947778e+01 4.439331e+01 3.548025e+01 3.593275e+01 3.314109e+01 3.267379e+01 3.308242e+01 2.578073e+01 2.241734e+01 1.772599e+01 6.587080e+00 5.593340e+00 4.403532e+00 4.410000e+00 4.750644e+00 4.470994e+00 4.440341e+00 4.582630e+00 4.634848e+00 4.359799e+00 3.516900e+00 3.153291e+00 2.468863e+00 5.467138e-01 7.324588e-01 1.072625e+00 8.508017e-01 1.032150e+00 9.480075e-01 9.165289e-01 8.803497e-01 9.162260e-01 8.607819e-01 7.371264e-01 7.092699e-01 4.892320e-01 8.076132e-02
<GCONST> 1.272767e+02
<STATE> 4
<MEAN> 39
 -3.819295e+00 -6.528706e+00 -5.770813e+00 -1.168575e+01 -9.318489e+00 -6.359237e+00 -7.946378e+00 -3.686001e+00 -3.448070e+00 -6.829492e-01 -5.960523e-01 -1.691274e+00 -2.429262e+00 2.646140e+00 -2.225971e+00 -6.096498e-01 -3.535836e+00 -2.553553e+00 -5.970588e-01 -1.443804e+00 4.112320e-01 -3.958701e-02 6.347749e-01 3.746856e-01 -4.996296e-02 1.460733e+00 -2.696480e-01 5.214859e-01 2.808807e-01 5.874565e-01 4.376685e-01 4.965522e-01 1.834408e-01 -5.584493e-02 -2.780818e-01 -2.229132e-01 -2.634228e-01 -2.200621e-01 -3.481527e-01
<VARIANCE> 39
 2.636506e+01 2.655502e+01 6.535246e+01 6.702452e+01 3.607483e+01 5.997146e+01 4.105447e+01 3.601876e+01 3.894215e+01 3.317067e+01 3.330225e+01 2.243501e+01 1.939805e+00 4.262395e+00 5.653009e+00 9.088739e+00 7.294497e+00 6.469121e+00 7.895753e+00 7.793791e+00 7.528284e+00 7.715783e+00 5.431164e+00 5.411783e+00 3.823601e+00 3.547706e-01 4.002149e-01 3.971212e-01 3.799352e-01 5.654340e-01 4.423485e-01 5.589233e-01 5.432251e-01 6.755288e-01 6.322625e-01 5.420268e-01 4.719928e-01 3.990782e-01 4.128263e-02
<GCONST> 1.254401e+02
<TRANSP> 5
 0.000000e+00 1.000000e+00 0.000000e+00 0.000000e+00 0.000000e+00
 0.000000e+00 5.000000e-01 5.000000e-01 0.000000e+00 0.000000e+00
 0.000000e+00 0.000000e+00 5.000000e-01 5.000000e-01 0.000000e+00
 0.000000e+00 0.000000e+00 0.000000e+00 5.000000e-01 5.000000e-01
 0.000000e+00 0.000000e+00 0.000000e+00 0.000000e+00 0.000000e+00
<ENDHMM>
~h "y"
<BEGINHMM>
<NUMSTATES> 5
<STATE> 2
<MEAN> 39
 -9.993198e+00 -2.697124e+00 1.155856e+01 -1.183422e+01 -1.442782e+01 -6.150234e+00 -9.545994e+00 -4.802236e+00 -1.118147e+01 -4.496890e+00 -3.053552e+00 -2.735646e+00 -3.651329e+00 8.841969e-01 -3.970279e-01 1.658467e+00 -7.007014e-01 -1.526501e+00 -1.429254e-01 -9.180406e-01 1.144140e-01 -9.196979e-01 -3.860103e-01 2.962167e-01 -1.640297e-01 3.975992e-01 -8.539741e-02 -3.868594e-01 -7.545833e-01 2.668845e-01 1.507422e-01 -1.632344e-01 2.577997e-01 3.226092e-01 3.184806e-01 2.052089e-01 1.385121e-01 1.026795e-01 -3.039392e-03
<VARIANCE> 39
 1.795949e+01 3.897855e+01 3.580877e+01 7.740948e+01 4.451903e+01 5.773201e+01 4.107566e+01 5.695743e+01 3.964878e+01 4.822846e+01 4.896882e+01 2.750134e+01 3.253895e+00 4.076579e+00 3.207672e+00 4.262156e+00 3.797954e+00 5.358807e+00 4.964362e+00 4.415706e+00 3.864410e+00 4.080986e+00 4.180301e+00 2.978958e+00 2.259292e+00 3.726760e-01 4.240220e-01 3.264923e-01 4.877972e-01 6.657839e-01 8.040920e-01 7.465873e-01 6.109810e-01 6.528417e-01 5.926858e-01 5.352865e-01 4.541734e-01 3.575664e-01 2.887282e-02
<GCONST> 1.218937e+02
<STATE> 3
<MEAN> 39
 -8.810253e+00 -5.186257e+00 1.337016e+01 -1.165393e+01 -1.853770e+01 -6.979693e+00 -9.385159e+00 -4.813743e+00 -1.246442e+01 -3.644641e+00 -1.967572e+00 -3.123225e+00 -2.631900e+00 4.725603e-01 -8.082513e-01 -4.930348e-01 6.408682e-01 -6.973953e-01 -9.214833e-01 1.692197e-01 5.688624e-01 -2.573209e-01 1.048504e-01 4.967539e-01 8.740813e-02 1.843331e-01 2.857818e-02 -6.145630e-02 -5.353569e-01 2.101047e-01 3.429663e-01 -2.368303e-01 4.161731e-03 2.205281e-01 2.394727e-01 -3.487356e-02 -1.790517e-02 8.636372e-02 -2.373333e-02
<VARIANCE> 39
 1.026830e+01 3.104517e+01 3.862315e+01 8.113662e+01 3.509373e+01 5.030579e+01 4.418841e+01 5.971267e+01 4.366038e+01 5.905164e+01 5.335320e+01 2.870698e+01 1.591087e+00 7.221052e-01 1.118819e+00 1.523140e+00 1.388651e+00 1.544365e+00 2.459841e+00 2.222335e+00 2.353085e+00 1.799127e+00 1.709734e+00 1.476081e+00 1.124228e+00 6.457179e-02 1.594819e-01 1.625363e-01 3.100880e-01 2.796455e-01 4.922843e-01 3.814919e-01 4.004836e-01 3.442520e-01 4.275779e-01 3.839713e-01 2.876708e-01 2.308119e-01 1.048373e-02
<GCONST> 1.000857e+02
<STATE> 4
<MEAN> 39
 -5.470385e+00 -1.005392e+01 6.738904e+00 -6.757406e+00 -1.878450e+01 -1.365212e+01 -9.264842e+00 1.825015e+00 -1.119589e+01 -4.951965e+00 9.602569e-01 -1.081591e+00 -1.850759e+00 9.566208e-01 -8.044767e-01 -2.552999e+00 6.741331e-01 1.375785e+00 -1.131745e+00 -1.151983e+00 1.336728e+00 1.608716e+00 -2.693110e-01 -3.100187e-01 2.850730e-01 1.459938e-01 -6.854884e-02 3.320549e-01 -2.783335e-01 -3.351806e-01 6.702982e-01 6.638604e-01 -2.397092e-01 -5.401049e-01 4.305266e-01 2.421445e-01 -3.588368e-01 -2.376648e-01 -7.984772e-02
<VARIANCE> 39
 1.074896e+01 2.493872e+01 4.828393e+01 6.368084e+01 3.649028e+01 5.470821e+01 6.242529e+01 5.682482e+01 6.268538e+01 6.029321e+01 4.503817e+01 2.657187e+01 1.627798e+00 5.767472e-01 1.092799e+00 2.129613e+00 1.966847e+00 2.217908e+00 3.081995e+00 3.341589e+00 3.269991e+00 3.078043e+00 2.865728e+00 2.095332e+00 1.950199e+00 4.487712e-02 1.402963e-01 1.671292e-01 3.648795e-01 3.461221e-01 4.491781e-01 5.503042e-01 6.271612e-01 5.583690e-01 5.557126e-01 5.671193e-01 3.948530e-01 3.224156e-01 1.000000e-02
<GCONST> 1.065594e+02
<TRANSP> 5
 0.000000e+00 1.000000e+00 0.000000e+00 0.000000e+00 0.000000e+00
 0.000000e+00 5.592138e-01 4.407862e-01 0.000000e+00 0.000000e+00
 0.000000e+00 0.000000e+00 7.171683e-01 2.828318e-01 0.000000e+00
 0.000000e+00 0.000000e+00 0.000000e+00 5.419661e-01 4.580339e-01
 0.000000e+00 0.000000e+00 0.000000e+00 0.000000e+00 0.000000e+00
<ENDHMM>
~h "ae"
<BEGINHMM>
<NUMSTATES> 5
<STATE> 2
<MEAN> 39
 -4.760504e+00 -1.482006e+01 -4.214446e+00 -1.343536e+01 -1.413163e+01 -7.847695e+00 -3.238632e+00 4.578210e+00 -2.170470e+00 -2.941341e+00 -5.086074e+00 -4.194782e+00 -9.832021e-01 2.985460e-01 -1.515890e+00 -1.569858e-01 -7.582392e-01 -3.650464e-01 4.696392e-01 6.600512e-01 8.884499e-01 1.778245e-01 -5.287296e-01 -3.462710e-01 -2.212078e-01 4.291781e-01 -4.328249e-01 4.544944e-01 -6.873933e-02 3.458443e-01 4.860729e-01 2.574126e-01 1.423636e-01 -3.648689e-01 -1.087759e-01 1.452681e-02 9.669956e-02 1.229868e-01 -1.863454e-01
<VARIANCE> 39
 1.369238e+01 2.960531e+01 4.794776e+01 4.703376e+01 4.988228e+01 5.169176e+01 6.601340e+01 5.769418e+01 6.981433e+01 4.328954e+01 4.309315e+01 3.259449e+01 1.747713e+00 1.423062e+00 1.989513e+00 2.139397e+00 2.333353e+00 2.881002e+00 2.635206e+00 3.417785e+00 2.970266e+00 2.790669e+00 2.413098e+00 2.180683e+00 2.134803e+00 1.994961e-01 3.470515e-01 3.189557e-01 3.061356e-01 4.006336e-01 4.611997e-01 5.019132e-01 5.788556e-01 5.024021e-01 5.286076e-01 4.627354e-01 4.296885e-01 3.662798e-01 2.878356e-02
<GCONST> 1.123462e+02
<STATE> 3
<MEAN> 39
 -4.948763e+00 -1.626587e+01 -5.561300e+00 -1.304880e+01 -1.267073e+01 -6.033389e+00 -9.986303e-01 4.153447e+00 -2.389027e+00 -4.805169e+00 -5.657287e+00 -4.100540e+00 -6.099801e-01 6.103691e-02 -2.796368e-02 -2.958711e-01 1.209683e-01 3.086838e-01 4.317705e-02 -4.854421e-02 -3.554750e-02 3.691936e-02 -1.079983e-01 -1.134003e-01 -2.420772e-02 -1.737031e-02 4.570439e-02 2.136319e-01 5.360766e-03 6.662438e-02 2.544462e-02 -1.115171e-01 -1.772221e-01 -1.008363e-01 -1.506258e-02 1.313343e-01 5.317792e-02 -6.995020e-03 -5.149506e-02
<VARIANCE> 39
 1.204754e+01 2.776356e+01 4.994287e+01 4.385696e+01 5.457005e+01 4.970939e+01 5.773195e+01 5.807491e+01 7.624288e+01 3.890083e+01 3.900058e+01 3.703259e+01 1.286784e+00 2.406123e-01 6.195631e-01 9.071499e-01 7.948526e-01 1.198202e+00 1.237155e+00 1.441318e+00 1.333501e+00 1.221534e+00 1.173317e+00 1.073874e+00 9.410237e-01 1.834509e-02 4.097152e-02 1.159960e-01 1.311492e-01 1.435653e-01 1.891482e-01 1.882970e-01 2.199672e-01 2.369592e-01 2.099968e-01 1.921561e-01 1.937166e-01 1.721170e-01 1.000000e-02
<GCONST> 8.508922e+01
<STATE> 4
<MEAN> 39
 -3.669199e+00 -1.376960e+01 -7.165896e+00 -1.145909e+01 -1.076422e+01 -8.244110e+00 -3.926257e+00 3.775639e+00 -1.787987e+00 -3.078651e+00 -5.623158e+00 -4.439575e+00 -1.382422e+00 -4.259551e-01 2.307781e+00 5.252068e-01 1.229176e+00 6.156303e-01 -3.053592e-01 -5.805377e-01 -1.161610e+00 -6.563492e-01 7.334683e-01 4.950378e-01 1.415139e-01 -6.974384e-01 -5.382434e-01 4.835768e-01 2.355375e-01 3.505446e-01 2.511742e-01 2.711401e-01 1.833350e-01 -3.822440e-01 -2.177129e-01 6.519116e-03 1.203008e-01 1.064291e-01 -2.086004e-01
<VARIANCE> 39
 1.167485e+01 3.178764e+01 4.773876e+01 4.067141e+01 4.962703e+01 5.644986e+01 6.761678e+01 6.224295e+01 7.480271e+01 5.062434e+01 4.981819e+01 3.870213e+01 1.861872e+00 2.485493e+00 2.902735e+00 2.848241e+00 3.165737e+00 3.780024e+00 3.877965e+00 4.258890e+00 4.899519e+00 4.622909e+00 3.315971e+00 3.268384e+00 2.997549e+00 2.804869e-01 4.153253e-01 4.362791e-01 4.124203e-01 4.645594e-01 5.893084e-01 6.572215e-01 6.907871e-01 7.768157e-01 7.916495e-01 6.358581e-01 6.082596e-01 4.692979e-01 3.619447e-02
<GCONST> 1.213215e+02
<TRANSP> 5
 0.000000e+00 1.000000e+00 0.000000e+00 0.000000e+00 0.000000e+00
 0.000000e+00 5.935643e-01 4.064357e-01 0.000000e+00 0.000000e+00
 0.000000e+00 0.000000e+00 8.675385e-01 1.324615e-01 0.000000e+00
 0.000000e+00 0.000000e+00 0.000000e+00 6.931076e-01 3.068924e-01
 0.000000e+00 0.000000e+00 0.000000e+00 0.000000e+00 0.000000e+00
<ENDHMM>
~h "er"
<BEGINHMM>
<NUMSTATES> 5
<STATE> 2
<MEAN> 39
 1.523428e+00 -1.295063e+01 -1.097238e+01 -7.501873e+00 -7.281820e+00 -1.276236e+01 -1.588594e+01 2.935303e+00 -1.433884e+00 -2.805436e+00 -1.566318e+00 -7.506057e-01 -1.534697e+00 1.741187e+00 -9.944383e-01 -1.425694e+00 4.900906e-02 5.795573e-01 -8.755084e-01 -2.115909e+00 1.175973e+00 7.697185e-01 -2.501602e-01 2.576428e-02 3.498813e-01 3.468857e-01 -9.301014e-01 3.967958e-01 3.146006e-01 1.070431e-01 1.530434e-01 3.971072e-01 6.565099e-01 -2.456549e-01 -4.537481e-02 6.787876e-02 -4.933469e-02 -3.171835e-02 -1.776727e-01
<VARIANCE> 39
 1.359389e+01 2.622513e+01 7.317751e+01 4.469598e+01 6.433258e+01 7.442430e+01 8.571806e+01 6.620939e+01 7.325871e+01 4.533980e+01 4.313953e+01 3.247112e+01 1.423649e+00 3.115883e+00 2.037663e+00 3.118392e+00 2.733232e+00 3.809691e+00 3.822052e+00 5.557709e+00 4.417267e+00 3.844959e+00 3.259489e+00 2.672282e+00 2.215004e+00 1.582941e-01 5.994259e-01 3.693263e-01 5.578378e-01 4.559529e-01 6.351058e-01 6.737432e-01 9.469485e-01 7.184996e-01 6.190126e-01 5.515814e-01 4.775410e-01 4.218725e-01 2.497458e-02
<GCONST> 1.203261e+02
<STATE> 3
<MEAN> 39
 2.706353e+00 -1.325475e+01 -1.421205e+01 -6.302191e+00 -4.820068e+00 -1.373343e+01 -1.796746e+01 5.018622e+00 1.072516e+00 -3.219396e+00 -1.892521e+00 -3.743627e-01 -1.327030e+00 -6.262375e-02 1.610425e-01 1.001854e-01 2.629102e-01 7.097526e-02 -9.040437e-02 -3.662322e-02 -1.956802e-03 4.126721e-02 -1.237561e-01 -1.626695e-01 5.403234e-02 -8.646872e-02 -2.744646e-01 1.949634e-01 3.602131e-01 1.267194e-02 -1.713278e-01 1.868606e-01 4.203460e-01 -2.598716e-01 -2.218264e-01 -4.931376e-03 -7.211520e-03 -4.913775e-02 -8.050095e-02
<VARIANCE> 39
 1.015698e+01 2.624182e+01 5.946754e+01 4.152413e+01 6.299224e+01 7.963697e+01 1.061379e+02 7.793281e+01 8.425896e+01 4.401165e+01 3.864273e+01 3.003412e+01 1.675165e+00 3.653318e-01 7.682283e-01 1.968006e+00 1.180314e+00 2.134276e+00 1.797917e+00 2.405415e+00 2.189484e+00 1.916567e+00 1.658133e+00 1.419492e+00 1.246028e+00 3.194239e-02 1.873786e-01 1.914054e-01 2.120987e-01 2.181013e-01 3.019065e-01 3.405610e-01 5.217606e-01 4.328026e-01 3.418726e-01 2.973998e-01 2.462162e-01 2.271993e-01 1.247014e-02
<GCONST> 9.954927e+01
<STATE> 4
<MEAN> 39
 -9.664114e-01 -1.029141e+01 -9.040834e+00 -3.973351e+00 -6.372850e+00 -1.287672e+01 -1.323361e+01 2.441041e+00 -1.398924e+00 -4.315456e+00 -3.476614e+00 -1.692228e-01 -3.065957e+00 -2.074215e+00 1.523273e+00 1.672928e+00 3.705677e-01 1.010936e-02 1.332811e+00 2.239979e+00 -1.351234e+00 -8.159371e-01 -3.321401e-02 -2.149021e-01 -2.787068e-01 -6.554799e-01 -6.200215e-01 2.493268e-01 1.223151e-01 -1.860689e-01 1.808112e-01 4.416373e-01 3.248144e-01 -1.410732e-01 -4.354270e-02 1.786005e-01 8.727583e-02 -1.248645e-01 -1.037827e-01
<VARIANCE> 39
 2.446440e+01 2.932269e+01 6.719380e+01 5.146738e+01 6.927998e+01 7.085061e+01 9.449268e+01 6.596964e+01 7.513418e+01 4.786940e+01 3.858930e+01 2.988354e+01 4.116648e+00 3.601652e+00 3.675078e+00 3.746271e+00 3.986257e+00 5.002774e+00 5.038059e+00 6.594635e+00 5.368794e+00 4.585776e+00 3.962108e+00 3.182549e+00 2.600839e+00 3.131225e-01 5.621806e-01 5.353928e-01 6.025804e-01 6.282970e-01 7.712488e-01 8.454192e-01 1.042001e+00 8.169292e-01 6.952790e-01 6.420301e-01 5.496634e-01 4.494595e-01 5.807665e-02
<GCONST> 1.284120e+02
<TRANSP> 5
 0.000000e+00 1.000000e+00 0.000000e+00 0.000000e+00 0.000000e+00
 0.000000e+00 4.838771e-01 5.161229e-01 0.000000e+00 0.000000e+00
 0.000000e+00 0.000000e+00 7.980293e-01 2.019707e-01 0.000000e+00
 0.000000e+00 0.000000e+00 0.000000e+00 6.500244e-01 3.499756e-01
 0.000000e+00 0.000000e+00 0.000000e+00 0.000000e+00 0.000000e+00
<ENDHMM>
~h "iy"
<BEGINHMM>
<NUMSTATES> 5
<STATE> 2
<MEAN> 39
 -6.596122e+00 -8.749645e+00 7.320929e+00 -1.013925e+01 -1.875037e+01 -1.157494e+01 -9.322081e+00 -6.239320e-01 -1.005441e+01 -3.944612e+00 -4.301548e-01 -1.433143e+00 -1.891609e+00 -2.884299e-01 1.393716e-02 2.315601e+00 -1.136922e+00 -2.033865e+00 7.281389e-01 4.521160e-01 -4.869756e-01 -1.558626e+00 2.439288e-01 5.404574e-01 -2.396505e-01 1.554617e-01 -2.728705e-01 4.128137e-01 -6.241513e-01 4.806290e-02 7.825410e-01 5.123715e-01 1.429203e-01 -3.838038e-01 3.304742e-01 3.014940e-01 -1.846096e-01 -1.545002e-01 -1.336786e-01
<VARIANCE> 39
 1.186845e+01 3.001722e+01 4.630725e+01 6.484319e+01 3.598766e+01 5.644590e+01 5.701727e+01 7.005254e+01 5.755239e+01 5.457765e+01 5.222350e+01 2.988067e+01 1.347598e+00 1.898796e+00 2.011770e+00 2.284907e+00 3.346898e+00 3.193640e+00 3.810411e+00 4.841551e+00 4.421527e+00 3.603067e+00 3.731400e+00 3.098136e+00 2.397549e+00 1.324924e-01 4.191535e-01 2.913438e-01 4.298999e-01 5.735358e-01 4.921677e-01 6.373149e-01 8.239269e-01 8.599596e-01 7.358632e-01 5.805174e-01 5.226563e-01 3.929069e-01 2.004680e-02
<GCONST> 1.173423e+02
<STATE> 3
<MEAN> 39
 -8.785172e+00 -5.112659e+00 1.089329e+01 -1.372781e+01 -2.014141e+01 -6.780506e+00 -8.277029e+00 -5.556225e+00 -1.122421e+01 -1.895969e+00 -1.871095e+00 -2.933276e+00 -2.124170e+00 -7.228731e-02 2.685601e-01 7.597148e-02 3.004579e-02 5.012905e-02 2.525615e-01 1.771262e-01 -2.339784e-01 -6.971885e-02 1.287838e-01 -1.340630e-01 -1.576218e-01 -7.727809e-02 5.918504e-02 -1.232715e-02 -4.426073e-01 3.381764e-01 3.415202e-01 -2.194361e-01 8.618976e-02 1.648402e-01 1.948752e-01 -8.311652e-02 -3.394385e-02 5.528139e-02 -5.705638e-02
<VARIANCE> 39
 1.094931e+01 3.080907e+01 3.441180e+01 8.176080e+01 3.424856e+01 5.594095e+01 4.764805e+01 6.427496e+01 4.551280e+01 5.886480e+01 6.898461e+01 3.318119e+01 1.473019e+00 3.846151e-01 1.025399e+00 1.171338e+00 1.291342e+00 1.108912e+00 1.818341e+00 1.644632e+00 1.833290e+00 1.557927e+00 1.360981e+00 1.199317e+00 1.056858e+00 4.006262e-02 1.012763e-01 1.679221e-01 2.654910e-01 2.959392e-01 3.655967e-01 3.227871e-01 3.342164e-01 3.294250e-01 3.532966e-01 3.209033e-01 2.826572e-01 2.166441e-01 1.043541e-02
<GCONST> 9.560758e+01
<STATE> 4
<MEAN> 39
 -8.414595e+00 -4.943367e+00 7.423591e+00 -8.851294e+00 -1.696914e+01 -8.710757e+00 -6.145351e+00 -3.787964e+00 -1.084704e+01 -2.616009e+00 -1.721985e+00 -2.873876e+00 -3.318902e+00 -3.579092e-01 6.435065e-01 -2.242953e+00 1.423370e+00 2.291560e+00 -1.201363e-01 7.180798e-01 3.232536e-01 1.119944e+00 -1.672506e-01 -2.746767e-01 1.140478e-01 -4.992083e-01 -2.598725e-01 5.621018e-02 -5.053222e-01 -1.713883e-02 5.413078e-01 2.915711e-01 -1.046349e-02 2.874069e-02 3.582297e-01 8.096435e-02 -6.642877e-02 5.574432e-02 -7.677292e-02
<VARIANCE> 39
 1.721251e+01 3.446598e+01 4.826331e+01 6.840611e+01 4.468618e+01 6.557906e+01 6.114899e+01 7.231479e+01 5.361425e+01 5.228109e+01 5.942119e+01 3.234881e+01 4.401694e+00 2.771515e+00 3.300223e+00 3.011604e+00 4.381826e+00 4.213120e+00 5.088613e+00 4.648187e+00 4.837875e+00 4.337564e+00 4.183296e+00 3.608879e+00 2.582874e+00 2.999164e-01 3.640044e-01 4.544100e-01 5.619841e-01 6.863405e-01 7.066844e-01 7.996723e-01 6.877364e-01 8.347907e-01 7.106507e-01 6.175264e-01 5.504152e-01 4.209120e-01 4.591395e-02
<GCONST> 1.251772e+02
<TRANSP> 5
 0.000000e+00 1.000000e+00 0.000000e+00 0.000000e+00 0.000000e+00
 0.000000e+00 5.434117e-01 4.565883e-01 0.000000e+00 0.000000e+00
 0.000000e+00 0.000000e+00 7.992262e-01 2.007738e-01 0.000000e+00
 0.000000e+00 0.000000e+00 0.000000e+00 6.449338e-01 3.550662e-01
 0.000000e+00 0.000000e+00 0.000000e+00 0.000000e+00 0.000000e+00
<ENDHMM>
~h "dd"
<BEGINHMM>
<NUMSTATES> 5
<STATE> 2
<MEAN> 39
 -1.187069e+01 1.881705e+00 -5.520328e-01 3.171725e-01 -2.007717e+00 -2.566136e+00 -4.938379e+00 -4.683956e+00 -5.657830e+00 -3.621389e+00 -3.862141e+00 -3.201461e+00 -8.567732e+00 -1.546453e+00 -1.668881e+00 -8.705049e-01 -1.032807e+00 4.341868e-01 5.950124e-01 7.321989e-01 8.434945e-01 9.218905e-01 6.761196e-01 6.208973e-01 5.683907e-01 5.373520e-02 2.777768e-01 -8.778399e-01 -2.490601e-01 -1.064725e+00 -7.699211e-01 -5.563876e-01 -2.583409e-01 2.697971e-01 1.623825e-01 2.560153e-01 2.302396e-01 2.148819e-01 5.819767e-01
<VARIANCE> 39
 3.871142e+01 2.618269e+01 2.733258e+01 2.868161e+01 2.720914e+01 3.064567e+01 3.031709e+01 3.304488e+01 3.293890e+01 2.651493e+01 2.457058e+01 1.926967e+01 5.705230e+00 3.609108e+00 4.356986e+00 3.405393e+00 4.217702e+00 3.833694e+00 3.919183e+00 3.744586e+00 4.153022e+00 3.867249e+00 3.202001e+00 3.004318e+00 2.306687e+00 5.302773e-01 6.056266e-01 8.485448e-01 7.434338e-01 8.557802e-01 7.537763e-01 7.013645e-01 7.338632e-01 7.944290e-01 7.368815e-01 6.634198e-01 5.597920e-01 4.581394e-01 9.305938e-02
<GCONST> 1.215179e+02
<STATE> 3
<MEAN> 39
 -1.380207e+01 -4.106205e+00 -2.631286e+00 -4.031992e+00 -2.648503e+00 -2.654665e+00 -3.992504e+00 -2.862296e+00 -4.011915e+00 -2.264048e+00 -2.655491e+00 -1.931448e+00 -6.850338e+00 -8.781413e-01 -2.329094e+00 -9.686858e-01 -2.480415e+00 -8.216463e-01 -4.973181e-01 8.122384e-02 9.301051e-01 9.492311e-01 8.373645e-01 8.162870e-01 8.131088e-01 1.025109e+00 7.195183e-01 4.030079e-02 1.595297e-01 -4.182236e-01 -7.700673e-01 -5.567055e-01 -4.459215e-01 -3.647296e-02 -1.752937e-01 -8.794422e-03 -3.424909e-02 -3.473063e-02 3.634976e-01
<VARIANCE> 39
 4.609700e+01 4.610304e+01 3.947778e+01 4.439331e+01 3.548025e+01 3.593275e+01 3.314109e+01 3.267379e+01 3.308242e+01 2.578073e+01 2.241734e+01 1.772599e+01 6.587080e+00 5.593340e+00 4.403532e+00 4.410000e+00 4.750644e+00 4.470994e+00 4.440341e+00 4.582630e+00 4.634848e+00 4.359799e+00 3.516900e+00 3.153291e+00 2.468863e+00 5.467138e-01 7.324588e-01 1.072625e+00 8.508017e-01 1.032150e+00 9.480075e-01 9.165289e-01 8.803497e-01 9.162260e-01 8.607819e-01 7.371264e-01 7.092699e-01 4.892320e-01 8.076132e-02
<GCONST> 1.272767e+02
<STATE> 4
<MEAN> 39
 -1.152951e+01 -5.399796e+00 -6.517791e-01 -9.477132e+00 -9.344363e+00 -1.007641e+01 -7.042903e+00 -1.769197e+00 -3.181676e+00 -2.343513e+00 -2.434306e+00 -3.189108e-01 -3.197309e+00 2.217976e+00 -4.923455e-01 4.969337e-01 -7.743727e-01 -2.096328e+00 -1.672876e+00 -1.672562e+00 5.953589e-01 1.171352e-01 2.334771e-01 -2.291614e-01 8.859739e-02 7.501148e-01 4.363321e-01 2.990309e-01 -8.327494e-02 6.537685e-01 2.598653e-01 5.104223e-01 1.562919e-02 -1.481818e-01 -1.713700e-01 -4.109250e-02 -2.463635e-01 -3.344376e-01 -2.720208e-01
<VARIANCE> 39
 4.017448e+01 3.531164e+01 4.180549e+01 4.297855e+01 4.413027e+01 4.126839e+01 4.578101e+01 3.716766e+01 3.787133e+01 2.461274e+01 2.270850e+01 1.892219e+01 2.757050e+00 5.308168e+00 4.370759e+00 5.453950e+00 5.825969e+00 6.794315e+00 5.493189e+00 6.508540e+00 5.828861e+00 5.591875e+00 4.210355e+00 4.437317e+00 3.253027e+00 4.207090e-01 4.096860e-01 8.217536e-01 5.702770e-01 7.429511e-01 6.725056e-01 6.955692e-01 7.456657e-01 7.409103e-01 7.124133e-01 5.715035e-01 5.341341e-01 4.402450e-01 4.941485e-02
<GCONST> 1.254565e+02
<TRANSP> 5
 0.000000e+00 1.000000e+00 0.000000e+00 0.000000e+00 0.000000e+00
 0.000000e+00 5.000000e-01 5.000000e-01 0.000000e+00 0.000000e+00
 0.000000e+00 0.000000e+00 3.333333e-01 3.333333e-01 3.333333e-01
 0.000000e+00 0.000000e+00 0.000000e+00 5.000000e-01 5.000000e-01
 0.000000e+00 0.000000e+00 0.000000e+00 0.000000e+00 0.000000e+00
<ENDHMM>
~h "v"
<BEGINHMM>
<NUMSTATES> 5
<STATE> 2
<MEAN> 39
 -5.845244e+00 -2.841478e+00 -6.669322e+00 -6.336512e+00 -5.139783e+00 -6.160735e+00 -9.416710e+00 -6.498714e+00 -5.002334e+00 -1.724120e+00 -1.724350e+00 -2.935886e+00 -4.663440e+00 -2.268772e+00 1.614919e+00 3.711116e-01 1.250641e+00 1.178020e+00 8.649279e-01 1.092844e+00 -3.249235e-01 -3.495165e-01 -5.785282e-01 -4.383936e-01 1.289112e-01 -7.978710e-01 -7.475541e-02 -6.050541e-01 1.594541e-01 -3.145607e-01 -3.682308e-01 -1.011379e-01 8.668959e-02 5.553643e-01 2.476200e-01 8.306134e-02 -8.899746e-02 1.810162e-04 1.818014e-01
<VARIANCE> 39
 2.551706e+01 1.809273e+01 2.633723e+01 2.522463e+01 1.792433e+01 3.077104e+01 2.700360e+01 2.521944e+01 2.607454e+01 2.505153e+01 2.810616e+01 2.153744e+01 2.715306e+00 3.030107e+00 2.241069e+00 2.826130e+00 3.126404e+00 2.584444e+00 3.371414e+00 3.754780e+00 3.724328e+00 3.055546e+00 2.830493e+00 2.672004e+00 1.972729e+00 2.264373e-01 3.886750e-01 3.714371e-01 4.015397e-01 4.033241e-01 4.365994e-01 4.509182e-01 5.909370e-01 5.579293e-01 5.275629e-01 4.708768e-01 4.295140e-01 3.690416e-01 3.416127e-02
<GCONST> 1.091633e+02
<STATE> 3
<MEAN> 39
 -1.327139e+01 -2.013950e+00 -4.990180e+00 -3.869619e+00 -3.241270e+00 -3.869032e+00 -5.367150e+00 -4.129334e+00 -4.530923e+00 -2.839386e+00 -3.317783e+00 -2.385416e+00 -6.238900e+00 -8.212737e-01 -4.493727e-01 -1.545893e-01 -1.583530e-01 -7.525081e-02 -4.812538e-02 4.805008e-01 6.037508e-01 4.473872e-01 1.177081e-01 6.184060e-02 1.915129e-01 5.633707e-02 1.100417e+00 -6.241250e-01 -2.323407e-01 -7.095533e-01 -5.952851e-01 -4.547832e-01 -4.618109e-01 1.430579e-01 1.212618e-01 2.426978e-01 1.845614e-01 -7.235488e-03 3.943295e-01
<VARIANCE> 39
 4.453132e+01 2.048189e+01 2.353966e+01 2.393999e+01 1.820858e+01 2.387994e+01 2.704720e+01 2.454204e+01 2.337212e+01 2.067169e+01 2.010818e+01 1.664946e+01 3.226744e+00 5.226992e+00 1.959328e+00 2.045551e+00 2.620944e+00 2.172874e+00 2.612988e+00 2.716805e+00 2.389851e+00 2.182962e+00 1.972746e+00 1.915849e+00 1.545393e+00 3.939951e-01 6.624347e-01 6.216725e-01 6.357582e-01 6.687742e-01 5.694318e-01 6.884288e-01 7.904923e-01 7.822783e-01 6.661128e-01 5.715545e-01 5.155680e-01 4.003935e-01 4.966773e-02
<GCONST> 1.110870e+02
<STATE> 4
<MEAN> 39
 -9.211680e+00 -4.401794e+00 -7.222131e+00 -7.398927e+00 -6.024594e+00 -6.159185e+00 -6.697021e+00 -3.688032e+00 -3.258189e+00 -1.771444e+00 -2.058941e+00 -2.158501e+00 -4.459593e+00 1.893032e+00 -1.266946e+00 -3.525220e-01 -1.396569e+00 -1.078415e+00 -8.171209e-01 -7.120409e-01 5.820624e-01 2.861344e-01 3.649230e-01 2.643197e-01 3.889980e-02 7.503578e-01 3.499296e-01 -2.433653e-01 1.422188e-01 -1.715656e-01 -1.504391e-01 1.894740e-02 -1.949709e-01 1.478774e-01 -4.714077e-02 2.257664e-02 -2.353346e-02 -5.156142e-02 8.699581e-02
<VARIANCE> 39
 5.704566e+01 2.169247e+01 3.613849e+01 3.318525e+01 2.495079e+01 3.540636e+01 3.717207e+01 2.939563e+01 2.767400e+01 2.334372e+01 2.284137e+01 1.976311e+01 3.814775e+00 6.739159e+00 3.572292e+00 4.060587e+00 5.135482e+00 4.267477e+00 4.932196e+00 5.502515e+00 4.383823e+00 3.948261e+00 3.010800e+00 2.791192e+00 2.345508e+00 6.291221e-01 6.676493e-01 4.686235e-01 4.238567e-01 5.954766e-01 5.184957e-01 5.954455e-01 6.937231e-01 6.292434e-01 5.502688e-01 4.636785e-01 4.244207e-01 3.606612e-01 5.836701e-02
<GCONST> 1.193028e+02
<TRANSP> 5
 0.000000e+00 1.000000e+00 0.000000e+00 0.000000e+00 0.000000e+00
 0.000000e+00 4.566848e-01 5.433152e-01 0.000000e+00 0.000000e+00
 0.000000e+00 0.000000e+00 5.338739e-01 4.661261e-01 0.000000e+00
 0.000000e+00 0.000000e+00 0.000000e+00 3.838826e-01 6.161174e-01
 0.000000e+00 0.000000e+00 0.000000e+00 0.000000e+00 0.000000e+00
<ENDHMM>
~h "dx"
<BEGINHMM>
<NUMSTATES> 5
<STATE> 2
<MEAN> 39
 -4.539454e+00 -7.857251e+00 -1.596208e+00 -3.513728e+00 -1.106250e+01 -8.503076e+00 -9.176913e+00 -4.163338e+00 -2.115869e+00 -2.518273e+00 -4.653949e+00 -3.442836e+00 -3.513931e+00 -8.521934e-01 7.701062e-01 8.905668e-01 5.465965e-01 6.086594e-01 -2.653829e-02 3.139393e-01 -6.864330e-01 -4.566146e-01 -2.041172e-01 -1.016766e-01 3.387529e-01 -4.136394e-01 2.383240e-01 -5.734212e-01 -8.398443e-02 -1.074163e+00 -5.538532e-01 -4.329426e-02 -2.485044e-01 6.556827e-01 -4.162624e-02 1.812651e-01 3.670956e-01 1.119114e-01 3.309200e-01
<VARIANCE> 39
 2.050211e+01 4.235407e+01 5.207346e+01 5.949771e+01 5.528299e+01 4.303033e+01 4.497871e+01 4.293058e+01 4.981335e+01 4.290592e+01 3.286763e+01 2.975759e+01 3.905186e+00 1.518343e+00 1.867376e+00 3.753524e+00 3.935109e+00 4.543169e+00 4.363874e+00 5.362884e+00 4.182101e+00 4.072016e+00 3.074741e+00 3.397179e+00 2.690289e+00 1.337291e-01 3.185621e-01 5.138955e-01 5.863269e-01 8.830824e-01 1.238412e+00 8.990619e-01 1.239154e+00 1.068199e+00 9.710976e-01 8.975865e-01 9.659125e-01 5.814319e-01 4.609419e-02
<GCONST> 1.244264e+02
<STATE> 3
<MEAN> 39
 -6.619350e+00 -8.511685e+00 -6.400916e-02 -6.476616e+00 -1.162975e+01 -8.721704e+00 -9.129243e+00 -3.483073e+00 -2.773933e+00 -2.731969e+00 -3.232150e+00 -1.880456e+00 -3.241278e+00 2.424949e-01 -6.662268e-01 6.908700e-01 -1.175940e+00 -1.092583e+00 -2.837664e-01 -6.672603e-01 6.672792e-01 -2.989849e-01 2.498259e-01 5.147517e-01 4.375263e-01 3.147649e-01 5.199053e-01 -4.643151e-01 -2.541952e-01 -6.520699e-01 -5.536358e-01 -3.820450e-02 -2.694355e-01 5.585966e-01 -7.160531e-03 1.982194e-01 1.492570e-01 -7.130536e-02 2.819307e-01
<VARIANCE> 39
 2.641782e+01 3.224921e+01 4.432308e+01 4.881101e+01 4.069403e+01 4.288863e+01 4.314051e+01 3.851825e+01 4.358891e+01 3.631821e+01 2.857745e+01 2.424910e+01 2.462197e+00 1.510775e+00 2.000152e+00 3.177660e+00 4.026753e+00 3.636301e+00 3.508731e+00 3.894909e+00 3.926924e+00 3.923654e+00 3.195524e+00 3.067203e+00 2.332178e+00 1.858004e-01 4.392554e-01 4.294043e-01 6.985435e-01 8.592626e-01 1.181155e+00 9.996576e-01 1.248286e+00 1.007520e+00 8.705572e-01 7.956530e-01 8.656482e-01 6.007328e-01 2.997301e-02
<GCONST> 1.212240e+02
<STATE> 4
<MEAN> 39
