~o
<STREAMINFO> 1 39
<VECSIZE> 39<NULLD><MFCC_E_D_A>
~h "varProto"
<BEGINHMM>
<NUMSTATES> 3
<STATE> 2
<MEAN> 39
 -1.077625e+01 -6.303028e+00 -4.707947e+00 -8.779657e+00 -8.093534e+00 -5.286354e+00 -5.808501e+00 -9.144211e-01 -3.448104e+00 -1.485706e+00 -1.777820e+00 -2.036624e+00 -3.849236e+00 1.093946e-03 4.807837e-03 2.638837e-03 2.953000e-03 3.300738e-03 5.090252e-04 2.870750e-04 -3.479431e-03 -3.929222e-03 -2.162745e-04 -3.161750e-03 -2.502067e-03 5.674726e-06 -1.224773e-04 -6.909129e-04 -5.264277e-06 3.113000e-04 -1.814942e-04 -3.614067e-04 -6.236280e-04 -2.419550e-04 2.014711e-04 3.466329e-04 5.119212e-04 -7.993209e-05 -3.960997e-05
<VARIANCE> 39
 9.857470e+01 5.546750e+01 7.227151e+01 7.634673e+01 7.804321e+01 6.913838e+01 7.343364e+01 6.157733e+01 6.080312e+01 4.222516e+01 4.611217e+01 3.340509e+01 1.125261e+01 4.615124e+00 3.291483e+00 3.045427e+00 4.137188e+00 4.288039e+00 3.993323e+00 4.290919e+00 4.150005e+00 3.785724e+00 3.096795e+00 2.945840e+00 2.399993e+00 4.639273e-01 6.651254e-01 6.107638e-01 5.636400e-01 8.277006e-01 8.862553e-01 9.320126e-01 1.011802e+00 1.035967e+00 9.807253e-01 8.817509e-01 8.367682e-01 7.139950e-01 7.005768e-02
<GCONST> 1.330183e+02
<TRANSP> 3
 0.000000e+00 1.000000e+00 0.000000e+00
 0.000000e+00 5.000000e-01 5.000000e-01
 0.000000e+00 0.000000e+00 0.000000e+00
<ENDHMM>
